nep3 6 Hf Zr Ta Mo Ti B 
cutoff 6 3 106 17
n_max 15 10
basis_size 8 8
l_max 4 2 1
ANN 60 0
 -3.5010302e-01
 -6.0955048e-02
 -2.4607379e+00
  7.2943550e-01
 -1.7454127e+00
  2.2702035e-02
 -2.9647136e-02
  1.0312264e-01
 -5.2700603e-01
 -5.8900756e-01
  7.7085942e-02
  2.5477698e-01
  3.0197364e-01
  5.1649541e-01
  1.3835329e-01
  3.4315845e-01
  2.1966943e-03
 -8.8966176e-02
 -1.9888261e-01
 -7.9207048e-02
  3.4304563e-02
 -8.7893695e-02
  9.7627476e-02
 -2.6263058e-01
  5.4838109e-01
 -1.1367073e-02
 -9.2065632e-02
  2.7910373e-01
  1.0867270e-01
  8.6781546e-02
 -1.9847083e-01
  1.6464809e-01
  3.3667615e-01
  8.5577530e-01
 -8.6063601e-02
 -1.3557400e-01
  2.0109646e-02
 -7.0287138e-02
 -5.5059694e-02
 -1.4820206e-01
 -9.1002151e-02
  2.3054342e-01
 -2.0043856e-01
 -7.3236167e-02
  1.0243951e+00
 -3.8164206e-02
  4.9085751e-02
 -5.6150597e-02
 -9.2053694e-01
  1.7974894e-01
 -1.9218639e-01
  2.6824528e-01
  3.6865699e-01
  5.2080180e-02
  2.5710814e-02
  4.4140807e-01
  1.6379019e-02
  4.4945043e-02
 -3.6779676e-02
 -2.8732454e-02
 -1.7972270e-01
  5.7667218e-02
 -8.3602972e-02
  2.4511752e-01
  1.1168507e-02
 -5.9224769e-02
  1.3214712e-01
  4.2120102e-01
  1.6819257e-02
  4.9866460e-02
 -1.0496764e-01
  2.6423740e-01
  9.2301704e-02
 -3.9842762e-03
 -1.9570459e-03
  1.2154934e-01
 -2.2706607e-02
  8.0591835e-02
 -2.1917777e-01
 -7.5005099e-02
 -1.0214648e-01
 -2.3250842e-02
  2.4651776e-01
 -4.1094458e-01
  2.0427939e-01
  8.3700758e-01
  9.8813188e-01
 -3.5740647e-01
  1.2091810e+00
  1.0217057e+00
  4.3716875e-01
  3.4077618e-02
 -2.8579018e-01
  9.5215684e-01
  1.5374945e+00
  2.2457787e-01
  5.1451489e-02
  1.2619057e+00
 -7.5233229e-02
 -2.4136934e-01
  2.7337930e-01
 -4.4433951e-02
 -6.2389231e-01
 -9.9507317e-02
 -1.1000267e-01
 -9.4486165e-01
  1.2812513e-02
 -1.9935228e-01
 -3.5651937e-02
 -7.4697854e-03
 -4.9315545e-01
 -3.8109466e-02
 -4.5404360e-01
 -2.8063354e-01
  6.7567146e-01
  8.9635924e-03
  8.4860545e-01
  2.3576675e-01
  8.5180104e-02
  1.0894701e-01
 -5.5013847e-01
 -8.1083439e-02
  1.6710414e-02
 -2.2953808e-01
 -3.3011988e-01
 -1.2274221e-01
 -1.3819782e-01
 -1.9490049e-03
 -1.6454197e-01
 -1.3564940e-01
 -9.6054757e-01
 -8.1297338e-02
 -1.1648852e-01
  9.4032943e-02
 -3.8116235e-01
 -6.3647009e-02
 -2.7114280e-02
 -2.2382492e-01
 -2.1667436e-02
 -1.6509257e-02
  2.9430259e-02
  3.5305001e-02
  6.6567091e-03
  2.1213284e-01
  1.5506914e-01
 -1.0606997e-01
 -2.9438910e-01
 -7.6742438e-03
 -3.8585726e-02
  4.9719788e-02
 -1.1138090e-02
 -1.3971938e-01
 -1.8198399e-02
 -1.5562558e-01
  1.6747150e-01
 -2.1989864e-01
 -1.0131403e-01
  1.1518624e-01
  3.6431383e-02
 -8.9384496e-02
  2.3219925e-01
 -1.2227534e-01
  7.7832751e-03
 -2.1013661e-01
  5.2332658e-01
  2.4591222e+00
  2.5015661e-01
  1.8866503e-01
  6.5602660e-01
  1.7449562e-01
  9.2460358e-01
  2.7508614e+00
 -5.8965456e-01
  1.4720775e+00
 -1.0293055e+00
 -8.7077066e-02
 -5.8057928e-01
 -1.3926610e+00
  1.0905164e-02
  2.3232772e+00
 -2.1086112e-01
 -6.5128922e-02
 -1.1118585e+00
  1.2134389e-02
  2.0620751e-01
  9.1631722e-01
 -1.7719757e-02
 -8.9168030e-01
  5.0689983e-01
 -7.9293549e-02
  6.8770462e-01
  3.0857900e-01
 -1.4770281e-02
  9.3390094e-03
 -3.8258916e-01
 -2.2605315e-02
 -3.9274555e-01
  1.4630053e+00
 -1.1964411e-01
  2.5131103e-01
 -5.0615585e-01
  1.0971724e-01
 -2.2448130e-02
 -1.7041467e-01
  3.1284854e-02
  1.5139790e-01
 -1.9806211e-01
 -1.0251089e-01
  7.9610035e-02
 -4.5330517e-02
 -6.7785025e-02
  1.2945879e-01
 -1.4502974e-01
 -6.2686898e-02
  2.3650954e-02
  1.7449330e-01
 -3.2999665e-01
  6.1212834e-03
 -4.9149299e-01
  5.3932324e-02
 -3.1086293e-01
 -5.5771898e-02
 -9.6153498e-02
 -3.1934619e-01
 -1.0821050e-02
 -1.8935157e-01
 -3.2470715e-01
  3.6746594e-01
  5.3025508e-01
 -6.3732311e-02
  7.6921568e-03
 -1.0801071e-01
 -2.7759738e-02
 -2.1527076e-02
 -3.9072931e-02
  1.1916830e-01
  1.5565018e-01
 -8.9371093e-02
  5.9565745e-02
  1.7184736e-02
  5.0242108e-01
 -4.6816636e-02
 -1.3321187e-01
 -1.0577668e-01
 -1.3402111e-02
  1.2245760e-01
  9.5285797e-01
 -3.2422334e-01
  1.1009777e-01
 -5.2597004e-01
 -6.1694700e-01
  2.6098872e-02
  2.8198891e+00
  8.0804920e-01
 -1.6255455e-01
 -1.0054737e-01
  5.4012370e-01
 -1.5514257e+00
 -8.1169620e-02
  1.5540427e+00
  7.4405271e-01
 -3.0819442e-02
 -7.1336651e-01
  1.3286602e-02
  6.5268967e-03
 -2.6530784e-01
  2.3178202e-01
  4.0802662e-03
  2.4665682e-02
 -4.2830923e-01
 -3.6146533e-01
  3.1014472e-02
 -4.9302936e-01
 -9.2736356e-02
  4.4323197e-03
  4.0208373e-02
 -1.0930338e-01
  3.1447029e-01
 -1.7522472e-01
  7.7361345e-02
 -7.2229192e-02
 -3.0320415e-01
  1.3174240e-01
 -1.6059067e-02
 -3.7104048e-02
 -2.8147697e-01
  1.5423038e-02
 -6.4342886e-02
 -3.7458715e-01
 -1.1358947e+00
 -9.2594422e-02
 -1.5236217e-01
  1.2679303e-01
 -4.7688827e-02
 -4.3405479e-01
  2.8939590e-01
  1.7658420e-02
  4.8848614e-02
  1.0309387e-03
  3.9156664e-02
 -8.8020843e-03
  4.8756728e-01
 -2.1296654e-02
  5.4703668e-02
 -1.4600092e-02
  1.6701262e-02
  1.3529272e-02
  3.4834433e-02
 -2.1780382e-01
 -2.3862008e-02
 -7.0117867e-01
  1.9550903e-01
 -5.9862888e-01
  4.9421784e-01
 -8.5605204e-02
  5.0366625e-02
  3.9155897e-01
  1.3219384e-02
  1.0649156e-02
  3.4450740e-02
 -2.1028858e-02
  2.2729579e-02
  1.2861306e-02
 -1.3743930e-01
  4.4051237e-02
 -9.1222592e-02
  1.5863074e-01
  7.0998311e-02
 -1.6588280e-01
  1.5655336e-01
 -6.8888617e-01
  1.2014441e-01
 -1.6941047e-01
 -2.0488496e-01
 -9.5241082e-01
 -9.5687397e-03
  4.0681860e-01
 -1.2251075e-01
 -7.0074953e-02
  6.2299520e-01
 -3.5610577e-01
 -1.1194146e+00
  2.8216991e-01
 -5.5586282e-02
  7.3356205e-01
  7.5827479e-01
  3.1526059e-02
 -1.7658550e-01
  7.7988839e-01
 -1.8024872e-01
  1.1607091e-03
  5.7495332e-01
 -4.2456184e-02
 -7.5627685e-02
  5.4819530e-01
 -1.5579998e-02
 -1.6138256e-01
 -6.3130611e-01
 -1.2685171e-01
  1.0423963e-02
  4.0201482e-01
 -1.4360933e+00
  6.0839862e-02
  1.4913598e-01
  5.3454746e-02
  6.1813742e-01
  7.0375484e-01
  2.5598431e-01
 -1.3314329e-01
  3.7240647e-03
  1.0076500e-01
  2.4997310e-01
  5.8846211e-01
 -3.2175738e-02
  1.7538817e+00
  5.0249804e-02
  2.1016750e-01
  2.3389105e-01
 -3.1887814e-02
 -7.9973333e-02
  1.2347097e+00
  5.9372044e-01
 -5.4314829e-02
  8.6290991e-01
 -3.9163213e-02
 -1.4685115e-01
  3.5076374e-01
  3.4467790e-01
 -1.6106388e-01
 -2.7443811e-01
 -3.9192889e-02
  7.0078768e-02
  1.1829989e-02
  2.5490949e-02
 -2.3864383e-01
 -2.5472367e-01
 -1.2546444e-01
  3.9486419e-03
 -8.1964932e-02
  9.0553910e-02
  9.5341980e-02
 -1.2130228e-01
  4.5859501e-02
 -8.1544712e-02
  4.8627965e-02
  1.8528137e-02
 -7.2924852e-02
 -2.5458524e-01
 -3.5186186e-02
  2.0442547e-02
 -5.3434741e-02
  1.1751791e-01
  3.4228803e-03
  1.6380952e-01
  2.0652075e-01
  3.2401457e-01
  1.5141609e-01
  6.5844797e-02
 -2.5014547e-03
  3.8994652e-01
  7.4493937e-02
  6.7169197e-02
  3.8431451e-02
 -3.4895006e-01
  6.3384302e-02
  1.1898730e-01
  2.7850131e-02
 -1.4139071e-02
  6.1100349e-02
  7.1712375e-02
 -2.2372457e-03
  2.1382689e-01
  1.8897590e-01
  2.6563787e-01
 -2.3232652e-02
 -6.9043547e-02
  9.7195014e-02
  3.1387247e-02
  8.7809183e-02
  8.4859498e-02
 -4.5221560e-02
  4.5811445e-02
 -4.4273846e-02
 -1.1282163e-02
  3.0549999e-02
  9.7324118e-02
  4.2018313e-02
  3.4635508e-01
  1.3691573e-01
 -3.0473841e-02
  9.2689414e-03
  1.6804731e-01
 -2.1274732e-02
  2.7479634e-02
 -2.5914630e-01
 -1.7536822e-01
 -2.5891535e-02
 -2.0069435e-02
 -1.5395287e-01
 -2.6779139e-01
  1.7396579e-02
  3.0005472e-02
 -2.0861688e-01
 -4.2532887e-02
  2.0913975e-01
  3.5254750e-02
 -1.6761383e-02
  3.9592898e-04
  1.8183369e-02
 -1.9221713e-03
  1.8410532e-02
  8.7079018e-02
 -1.6303301e-02
  2.0681284e-01
  2.3957683e-01
 -3.5815574e-02
 -3.0328659e-02
  7.9637259e-02
  6.3452229e-02
  5.0435518e-03
  1.3916083e-03
 -1.3987374e-02
 -1.3209748e-01
  6.7967544e-03
 -3.8745099e-01
 -3.3027595e-01
  8.0060214e-02
  1.9995753e-01
  5.9536386e-02
 -4.6178047e-02
  1.5081054e-01
  1.1559245e-01
  2.3050399e+00
 -1.7834514e-01
 -4.9494684e-01
 -1.5188399e-01
 -5.0113243e-01
  7.6439768e-01
  2.2076130e+00
 -1.8573581e-01
 -3.9403513e-01
 -7.1134973e-01
 -2.3137614e-01
 -8.9648288e-01
  1.3156494e-01
  7.8874069e-01
 -6.1123723e-01
  3.2109153e-01
 -2.0591240e-02
  1.5068842e-01
  3.6890072e-01
  1.0215837e-01
 -1.2080640e-01
  4.6442834e-01
  1.0730176e-01
  1.5144475e-01
 -8.3585046e-02
  1.3726955e-02
 -2.8511190e-01
 -4.0831901e-02
  1.1753119e-01
  2.7863517e-01
 -3.0884277e-02
  1.1799210e-01
 -1.3275474e-01
  2.5140787e-03
 -1.1278688e-01
 -1.1495533e-01
  8.8317040e-03
 -6.2061142e-02
 -6.4533457e-02
  4.5542952e-01
 -2.4387260e-01
  6.5788254e-02
  6.5719592e-03
  1.2517991e-02
 -3.8584810e-02
  1.0747718e-01
  1.1440980e-01
 -9.4435057e-03
  2.0845607e-02
 -1.2967004e-01
  1.9165354e-02
  1.2846056e-02
  1.1372028e-01
  8.8327214e-02
 -2.8456634e-02
 -2.0803691e-01
  6.8385139e-02
  1.3512412e-01
 -6.9825009e-02
 -7.1947359e-02
  8.5413760e-01
 -2.7744389e-01
  4.8415925e-02
 -6.5455828e-03
  1.5951341e-02
  2.1999028e-01
  2.3629269e-01
  5.0935570e-02
  7.8148574e-02
 -9.2023320e-02
 -2.0433898e-01
  5.5561751e-02
  1.0615462e-01
 -3.1062577e-02
 -8.9032166e-03
 -4.2871639e-02
 -1.8908877e-03
  1.7905371e-01
 -8.3749406e-02
  1.1828751e-01
  8.3226018e-02
 -2.7096156e-02
 -1.3446537e-01
  8.4359318e-02
  1.5160802e-01
  9.9607140e-01
  2.3327872e-01
  1.9514029e-01
 -2.4500847e-01
  3.2661256e-01
 -3.5889378e-01
 -2.7188131e-01
 -9.2831945e-01
 -3.6519155e-01
  3.9612609e-01
  3.6596137e-03
 -7.6067269e-01
  3.0444515e-01
 -5.3592968e-01
 -7.0161544e-02
  8.7784100e-01
 -5.0863445e-01
 -1.1668874e+00
 -1.7375937e-01
 -3.9093557e-01
 -1.3516382e+00
 -5.2952647e-02
  1.4694017e+00
  2.3699846e+00
 -1.1121666e+00
 -1.3591046e+00
  4.3853214e-01
 -2.5802487e-01
 -4.3310231e-01
 -4.0121105e-01
 -4.8571998e-01
 -3.0883184e-01
  3.8235196e-01
  1.0972686e+00
 -2.5903647e+00
 -1.0514107e+00
 -9.8885894e-02
  1.5487370e-01
 -7.4336731e-01
 -6.7943394e-01
 -2.6179561e-01
  1.2135600e+00
  3.0712759e-01
 -4.5083323e-01
 -2.1393411e+00
 -1.2229698e+00
 -1.6666313e+00
  1.5230485e+00
 -8.8279116e-01
 -2.6225986e+00
 -1.7376089e-02
 -4.6715978e-01
  1.2960618e+00
  4.1874334e-01
  6.0328335e-01
 -3.7375752e-02
  1.0059029e+00
  7.8735948e-02
 -9.1666883e-01
  8.0447626e-01
 -5.4455489e-02
 -2.8203252e-01
 -3.8606635e-01
  5.7216084e-01
 -1.3674217e+00
  1.3607048e+00
 -2.0218424e-01
  7.1019128e-02
 -1.2078621e-01
  9.3031585e-02
  4.3574432e-03
  1.0764436e-01
 -2.7990270e-02
 -1.1943354e-01
 -5.0588846e-02
 -3.3789407e-04
 -1.3357660e+00
 -1.4650257e-01
 -3.8771796e-01
  2.1162318e-01
  6.1050467e-02
 -4.7388010e-02
 -1.4363443e+00
  4.9057895e-01
  3.8619289e-01
  2.5978178e-01
  2.5799561e-01
  3.7454990e-01
  2.8367800e-01
  7.6040459e-01
  2.8391919e-01
  8.2268566e-02
 -2.9129407e-01
  8.8396436e-01
  1.5326095e-02
  3.0161729e-01
 -1.1618632e+00
 -9.6369398e-01
  4.3141159e-01
  1.1617091e+00
 -1.3032430e-01
 -2.5013027e-01
  1.9524523e+00
 -7.6267797e-01
 -6.6921785e-02
 -2.0907137e+00
 -3.0170734e+00
  1.2559117e+00
  1.9092244e-01
 -7.4401784e-01
  2.8463275e+00
 -3.6516154e-01
  9.5609140e-01
  8.0055457e-01
  1.5528321e+00
 -1.8156098e+00
  2.2343113e+00
 -1.8364751e-01
 -1.8559902e+00
  1.6017403e-01
  2.2528417e+00
  9.2400306e-01
  1.0948278e+00
 -1.1634409e+00
 -1.1892230e-01
  9.6023214e-01
  6.6070092e-01
  2.9127281e+00
  7.2747868e-01
  3.6893997e+00
 -2.6855868e-01
  2.4582915e+00
 -9.7864163e-01
  2.6423323e+00
 -3.8287485e+00
  1.8159186e+00
  9.4675022e-01
 -2.0796063e+00
  2.1131752e-01
 -1.6668223e+00
 -4.2181650e-01
 -7.4780601e-01
 -8.9496911e-01
  1.2254554e+00
 -3.8205585e-01
  9.9577528e-01
 -6.6647775e-02
  5.4563165e-01
 -4.6060193e-02
  3.6934623e-01
 -8.0686837e-01
  8.4006889e-03
 -2.1135192e-01
  1.6654395e-02
  3.8688872e-02
 -2.3099333e-01
  1.8197565e-01
  2.0657215e-01
 -1.2367906e-02
 -4.3305110e-02
  4.2543581e-01
 -4.7555991e-02
 -1.9044988e-01
 -1.2618805e-02
 -8.4614009e-02
 -2.6116717e-01
 -7.0458509e-02
  2.6156832e-02
  6.7379721e-02
  1.0049807e-01
 -1.0609259e-02
 -1.4238369e-01
 -6.5967329e-02
 -1.0988443e-01
  8.7757953e-02
 -3.9705178e-03
  3.8035810e-03
  6.9891170e-02
  9.0028262e-03
 -6.6594374e-03
 -8.6424090e-02
 -1.5945604e-01
 -1.2516567e-01
  7.8979634e-02
 -2.1315239e-01
  5.8622330e-02
 -6.5451160e-02
  4.7984168e-02
  1.3571164e-02
  2.4531949e-02
  4.4400543e-02
  2.8877934e-02
 -1.4345110e-02
 -3.8666453e-02
  1.5855587e-01
 -2.5657393e-02
  1.0239720e-02
 -1.0647402e-01
 -6.0743887e-02
 -4.1273165e-02
 -1.1365200e-01
  1.5099014e-01
 -6.8612292e-02
  3.0949231e-02
 -1.6428988e-01
 -2.9616546e-02
 -3.1291395e-03
  4.5366779e-02
  7.9191521e-02
 -2.2878988e-02
  4.0653256e-01
 -6.2823687e-03
  5.4757282e-02
 -5.5680726e-02
 -1.4627419e-01
  1.8896796e-02
 -1.1113676e-01
  1.1908688e-01
  2.4986431e-02
 -5.9960172e-02
  1.3756999e-01
 -1.6649558e-01
 -1.5084052e-01
  8.4949039e-02
 -2.2987001e-02
 -9.4784111e-02
  7.3748529e-03
 -5.9490385e-03
  8.8918909e-02
 -1.1511731e-01
 -9.5026210e-02
  5.2402869e-02
  1.3487303e-01
 -1.3271816e-01
  2.3202395e-01
 -2.6342593e-02
  6.2100656e-02
 -4.1486118e-03
  1.4023192e-02
 -1.1972231e-01
 -2.3789063e-02
 -2.4901421e-01
 -1.9155085e-01
  3.8869530e-01
  1.3019224e-02
  7.8660272e-02
  1.1883304e-02
 -3.5063761e-01
  4.9360260e-02
  5.5909730e-02
 -2.6831614e-02
  7.0719175e-02
  1.7975291e-02
  8.5338920e-02
 -3.3097470e-01
  4.3961683e-01
 -5.4822616e-02
 -1.2214854e-01
 -1.4615987e-01
 -1.4882178e-02
 -2.4512723e-02
 -4.3545734e-02
  4.9986366e-02
  2.4108291e-03
 -6.2865689e-02
  2.2540182e-01
 -4.0575743e-02
  7.7927522e-02
 -6.7566082e-02
  9.1329664e-02
 -6.4457357e-02
 -3.5985216e-02
  2.8460813e-01
  1.6011070e-01
 -5.9481744e-02
 -4.6843320e-02
  5.7567973e-02
  1.9197379e-01
 -1.7181073e-01
  5.3972572e-02
 -2.4039246e-01
  1.0806879e-01
 -1.5227565e-02
 -4.0101588e-02
  2.3613790e-02
 -3.7922215e-02
  1.9324586e-01
 -1.3426943e-01
  4.1381121e-02
 -1.1503360e-01
 -4.3107264e-02
 -5.1417905e-03
  4.5498833e-02
 -5.1410355e-02
  1.6919534e-01
  1.0253266e-01
  3.3597329e-01
  2.1837795e-01
 -2.6765699e-02
  1.0268475e-01
 -7.3927253e-02
  4.2435460e-02
  1.2476476e-01
 -5.2043680e-02
  1.4679285e-02
  3.8887724e-02
 -1.6953799e-01
  4.9280599e-02
  8.6128302e-02
 -6.6067758e-03
  3.9338908e-01
 -8.2744835e-03
 -3.9718013e-02
  1.0206594e-01
 -1.0239633e-01
 -4.1710537e-02
  4.6908531e-01
 -5.5465406e-01
  1.3290484e-01
  4.7195222e-02
 -1.4020075e-01
  1.0893943e-01
 -8.0306835e-02
 -7.1812674e-02
  1.2845056e-01
  1.0347332e+00
 -1.2516871e-01
 -1.9361011e+00
 -5.0178462e-01
  1.3668418e-01
  1.7221254e-01
  1.4079612e-01
  2.9864320e-01
  7.8292227e-01
 -1.1245797e-01
  1.6888784e-01
  1.2841982e-01
  3.6891382e-02
  4.6263903e-01
 -1.2357762e-01
  6.0405141e-01
  8.9235675e-01
 -2.2066808e-03
 -9.1897279e-01
 -2.5308665e-03
 -9.7186692e-02
  9.0632103e-02
 -3.0600833e-02
  8.6381420e-02
 -5.8031660e-01
  6.6100430e-01
 -1.6343053e-01
 -1.7208911e+00
  1.0099591e-01
  1.3423894e-01
  3.8697055e-01
  9.9245250e-02
 -9.6601260e-01
 -5.1579237e-02
  1.0499610e-01
 -1.0230472e+00
 -9.4656819e-01
 -7.3018503e-01
 -7.1836185e-01
  5.2014824e-02
 -5.5730021e-01
 -9.2783570e-02
 -7.2432923e-01
 -1.4484231e-01
 -5.1797932e-01
  2.6076872e-02
  7.5151525e-02
 -1.0316717e-01
 -8.0831802e-01
  1.7709854e+00
  1.2437757e-01
 -6.6443902e-01
  6.2480818e-02
  7.5324535e-01
  1.7216828e-02
 -1.6113031e+00
 -1.7486426e-01
  3.2054490e-01
  5.1804595e-02
  1.2579782e+00
 -4.4388258e-01
 -1.2468408e-01
 -7.1740471e-02
  1.1153868e-04
 -2.1121371e-01
  4.2974405e-02
  3.5797647e-01
 -5.4486994e-02
 -4.7405858e-02
 -1.0780338e+00
  6.0152012e-01
  2.2932984e-01
 -2.9771635e-01
 -1.0307810e-01
  1.6791910e-01
 -6.4999141e-02
 -2.7301121e-01
 -6.5944374e-02
  3.7211087e-03
  1.2743485e-01
 -3.1734042e-02
  8.5950099e-02
  6.0174119e-01
  4.7826864e-02
  6.0408276e-01
  4.4758442e-01
  2.0364258e-01
 -1.4287147e-03
  6.9057219e-02
  7.4753441e-02
 -5.1750684e-01
 -2.3183385e-01
  7.2952366e-01
  9.8993933e-01
  4.6553794e-01
 -1.0596859e+00
 -4.8823860e-01
 -2.3690782e-01
 -5.7101011e-01
  8.1008297e-01
  8.1433958e-01
 -2.2227246e-02
  2.2859950e-01
  1.6881585e-02
  1.9443074e-01
 -2.9603687e-01
 -5.9976608e-01
 -3.4072775e-02
 -3.1919855e-01
 -7.3027277e-01
  1.0908580e-01
 -1.0323536e-01
  1.3977517e-01
  7.3989880e-01
  7.3443770e-02
 -2.2427379e-01
  5.8901828e-02
  2.3676239e-01
  1.7376810e-01
  4.8823752e-02
  2.9412596e-02
  6.9196975e-01
  2.0089039e-01
  4.0312415e-01
  6.4464450e-02
 -2.6365626e-01
  5.3453761e-01
  6.1804628e-01
  2.7382255e-01
  3.5735545e-01
  2.3384076e-01
 -3.7417296e-02
  1.8518972e-01
 -1.9486238e-01
  1.0816354e-02
  5.6553304e-02
 -1.1128575e-01
  2.9718709e-01
  2.5688279e-03
 -3.2959038e-01
 -4.7490198e-02
 -1.0670000e-01
 -2.6341820e-01
  1.2938547e-01
 -2.0208621e-01
  5.0106946e-02
 -1.9326940e-01
 -1.1572436e-01
  5.9465563e-01
 -5.4041840e-02
  2.2906554e-03
 -1.0616345e-01
  1.6518889e-01
 -1.8818851e-01
 -1.7362090e-02
  1.9278572e-01
 -3.8889043e-02
 -4.0173758e-02
 -1.6988970e-02
 -9.1443241e-02
 -1.3911474e-01
  4.2223413e-02
  8.7224051e-02
 -5.3599620e-01
  1.0223040e-01
  6.2309772e-01
 -1.3913639e-01
 -4.5148239e-02
  5.5607647e-01
  1.2210136e-01
  1.0829715e-01
 -4.3974197e-01
 -1.3046619e-01
 -3.9128822e-01
 -5.1417422e-01
 -1.1272824e+00
 -4.6691236e-01
 -8.1758094e-01
 -3.5634524e-01
 -1.3766101e-01
 -5.7228118e-02
  7.5058214e-02
 -2.2438604e-01
 -1.1259671e-01
  4.3916237e-01
  6.8114448e-01
  3.4996226e-02
  4.2566741e-01
 -1.0563717e-03
  1.6080220e-01
  4.1033765e-03
 -6.0276842e-01
  2.5685903e-02
 -7.7783093e-02
 -1.1245324e-01
 -1.3947263e-01
 -6.1635260e-02
 -1.1545085e-01
  1.5262385e-01
 -7.5640553e-03
  3.2061972e-02
 -1.7442407e-02
  8.2227039e-01
  3.8496956e-01
 -4.8479419e-03
 -1.5735185e-02
  1.4432009e-01
  1.5055735e-02
  3.9443752e-01
  8.6060888e-01
  3.0009368e-01
 -1.0975026e-01
  8.1773400e-02
  1.2321731e+00
 -4.0182725e-01
  3.5945037e-01
 -1.3042804e-02
 -1.7156570e-01
  3.9650065e-01
  1.4316543e+00
 -1.3566583e-01
  9.6961081e-01
  3.2091789e-02
  1.3258873e-02
  1.0650241e-01
  7.4880943e-03
 -6.8994695e-01
 -2.6807037e-01
  3.2853258e-01
  3.7081748e-01
  1.4273643e+00
  5.9798962e-01
 -1.5445669e-01
 -7.4751161e-02
 -7.5698957e-02
 -1.6725101e-01
  2.2414805e-02
  1.3457403e-01
  1.0758818e-02
 -7.3091671e-02
  2.2969048e-01
  5.3286469e-01
  7.0807464e-02
  1.9705022e-02
 -1.1759439e-01
  2.5530705e-01
  1.2705061e-01
  4.0418409e-02
 -5.5672746e-02
  4.1384217e-01
  1.8421838e-01
 -6.9182777e-01
 -2.3151340e-01
 -9.9195272e-02
  1.5451759e-01
 -1.1236639e-01
 -8.7740982e-01
  2.2254910e-01
 -4.0887383e-01
  2.6695916e-01
  1.9934624e-01
 -6.9971126e-01
 -4.4194540e-01
  1.5618090e-01
 -7.2941899e-01
  1.0967890e-03
 -8.9433205e-01
 -1.8519928e-01
  6.2265992e-01
  1.4924657e-01
  7.1958855e-02
  1.2915926e-01
  4.0043551e-02
 -4.7911114e-01
 -6.3546145e-01
 -5.1334584e-01
 -4.6133719e-02
  7.1805179e-01
  3.0853456e-01
  2.3381639e-01
  1.1767278e+00
  1.3406450e+00
  3.3453083e-01
  8.9690894e-02
 -5.9184206e-01
  7.8259937e-02
 -7.4313086e-01
 -3.9492659e-03
 -2.3206141e-02
 -1.0048021e+00
 -1.2122217e-01
 -2.0706234e-02
 -1.6413888e-02
  1.1002978e+00
 -2.9527724e-01
  2.5403457e-02
 -2.6625365e-01
 -3.3636916e-01
  1.6344529e-01
  1.0182838e-01
 -5.1019031e-01
  4.4306491e-02
  8.1016138e-02
  2.8415549e-01
  1.6064498e-01
  4.2713247e-02
 -3.7717246e-02
  4.4816828e-01
 -5.3885300e-02
 -3.4865367e-01
 -1.1883126e+00
 -9.0450466e-01
  6.9390804e-01
  6.3747710e-01
 -2.8763503e-01
 -8.2711823e-02
 -4.3991846e-01
 -4.4981297e-02
 -1.3453908e-01
  3.3626728e-02
 -1.7194746e-01
 -2.2375080e-01
  7.2202407e-02
  1.2218903e-01
 -1.0614621e-01
 -4.1116938e-02
 -4.4800453e-02
  7.9558156e-02
  4.7462726e-01
 -2.3458979e-01
 -9.8042107e-01
  2.7721462e-01
  2.2990416e-01
  5.5999798e-01
  9.5934764e-02
  1.8610373e+00
 -4.4267803e-01
  8.9607841e-01
  2.9811552e-01
 -4.9431175e-02
  9.0853316e-01
  2.2118551e-01
  4.4300929e-02
  1.1908110e+00
  9.2933558e-02
 -7.3624516e-01
  1.5617296e-01
 -1.9324498e-01
  1.4029127e+00
  8.5476249e-02
  6.6180652e-01
 -3.7294781e-01
  4.6884802e-01
  1.8412825e-02
 -1.0973985e-01
  3.7041447e-01
 -1.5126754e-01
  1.2092128e-02
  1.1248261e-01
 -1.2662935e-01
  1.7583488e-01
 -2.3329783e-02
 -2.5331469e-02
  4.1795570e-02
 -4.6696071e-02
  3.9723387e-01
  2.1694045e+00
  5.0452050e-02
 -7.2398283e-02
  3.8726714e-01
  7.3361851e-02
  1.3248623e-02
  1.2781123e+00
 -1.6948555e-01
  7.6344116e-03
  7.2811224e-02
  1.9213318e+00
  1.8873183e-01
 -4.4086888e-02
 -2.3715723e-01
 -6.8344758e-04
  1.8734019e-01
 -2.9601328e-02
  1.3661036e+00
 -5.8059122e-02
 -1.0492423e-02
  5.3764284e-02
  2.6034137e-02
  2.0173900e-01
  1.8309547e-01
 -2.3142421e-01
 -7.8021929e-02
  1.3179024e-01
  1.4534932e-01
 -2.5963333e-01
  2.1637353e-01
  8.6453497e-02
  4.9411781e-02
  7.7938937e-02
  5.3932440e-02
 -4.7714770e-02
 -5.1427897e-02
  1.8935208e-01
 -2.8069103e-01
  2.6157239e-01
  3.2904702e-01
  2.0605791e-01
  7.4052393e-02
 -6.2411737e-02
  3.4638843e-01
  1.3056186e+00
  9.7666031e-01
 -1.3604939e+00
 -1.4238741e+00
  1.1137881e-01
 -4.8838234e-01
  1.0415068e+00
 -3.3358881e-01
  9.9904501e-01
 -5.6414777e-01
  5.1180035e-01
  2.6913908e-01
 -6.4396358e-01
  8.8526076e-01
  6.2648135e-01
  1.5813838e-01
 -1.9653749e-01
 -4.1435482e-03
 -1.3990313e-02
  5.1791288e-02
  1.1570626e+00
 -7.7684581e-01
  1.7890459e-01
 -1.3987188e-01
 -6.2490237e-01
  2.7718416e-01
 -1.4387974e+00
 -1.1532076e-02
 -1.3265555e-01
 -5.3342436e-02
  8.0878508e-01
  5.5624807e-01
  7.7148341e-02
  8.3501583e-01
 -2.9841396e-01
  8.4127253e-01
  1.5472595e-02
 -1.7569119e+00
 -1.4644127e-01
  4.7410733e-01
  1.1772802e-01
  5.0838649e-01
  1.5085880e+00
 -2.1050224e-01
 -3.0309090e-01
 -1.8066268e-01
 -1.4895520e-01
 -4.6684258e-03
 -4.6365574e-01
  1.0294677e-01
  3.0062538e-02
  3.0430189e-01
 -2.1881623e-02
 -1.4288029e-01
 -9.7152874e-02
  9.4384961e-02
 -2.5146329e-01
  4.0520751e-03
  2.7604091e-01
 -9.7233661e-02
 -1.6731594e-02
 -8.5234456e-02
  7.9672784e-02
 -3.7183633e-01
 -2.0099367e-01
 -6.5699928e-02
  3.1497455e-01
 -1.1812673e-02
  2.7980439e-02
 -1.9696794e-02
 -4.5428749e-02
 -8.7949079e-01
 -8.6767934e-03
 -1.0071160e-02
 -2.8972337e-01
  2.9106194e-02
 -5.4355372e-02
 -1.5457135e-02
 -4.5338050e-02
 -9.4081199e-01
  6.9110997e-02
 -1.8078613e-01
 -3.4212723e-02
  2.1102619e-01
  2.1618898e-01
 -9.6126562e-01
 -3.6042985e-01
  6.2757164e-01
 -1.5548539e-01
 -2.7929285e-01
 -7.8524522e-02
 -1.3943718e-01
  5.8160400e-01
 -6.1435783e-01
 -2.4375635e-01
 -2.4858201e-01
  4.6927795e-01
  1.6117206e-01
 -1.0046099e+00
  8.7681368e-02
 -8.6964178e-01
  1.3826339e+00
  1.2168298e+00
 -7.9282552e-01
  7.4797708e-01
  1.0497441e+00
  8.3664763e-01
 -1.0801439e+00
  1.5074000e-01
 -2.8726387e+00
  4.9257034e-01
 -8.2473785e-01
  2.0441732e+00
  2.1877508e+00
 -1.2331754e+00
  5.7638204e-01
  8.2807738e-01
  1.7863963e+00
  8.6458988e-02
  2.2536516e+00
 -1.8165179e-01
  6.5103792e-02
  1.7811590e+00
  1.1086904e+00
  5.5306703e-01
  9.4396204e-01
  4.4592747e-01
 -7.1353877e-01
  3.7223473e-03
  6.7129987e-01
 -6.5228665e-01
  1.3760192e+00
  1.6501941e-01
 -1.0480762e-01
  3.0718122e+00
  9.4694394e-01
  6.6230535e-03
  5.8114582e-01
 -8.4905368e-01
 -1.3626153e+00
  5.5289324e-02
 -3.4325978e-01
 -8.8610984e-02
  1.8133759e-01
 -1.6758075e+00
  2.1029260e+00
  1.7455505e+00
 -3.1562120e-01
 -1.8699722e-01
 -4.9691930e-02
 -2.1208914e-01
  1.2828428e+00
 -8.2281992e-02
 -5.3337288e-01
  5.1097488e-01
  3.5309121e-02
  1.8658896e-01
 -2.1385282e-01
 -1.8750332e-01
  6.0310513e-01
 -4.1117483e-01
 -1.1752128e-01
 -2.0257287e-02
 -1.9239560e-02
 -2.5260512e-02
  3.4929577e-02
  3.3303899e-01
 -1.8059020e-04
  1.3665323e-01
  1.6594110e-02
  8.5018709e-02
  2.1001045e-01
 -9.4455205e-02
  4.9876980e-02
 -3.9962620e-02
  3.2479879e-01
  1.7387826e-02
 -2.3130924e-02
 -9.3496107e-02
  9.1426887e-02
 -1.9540626e-01
  1.5219906e-01
 -2.0355490e-01
  2.0518322e-02
  2.2045578e-01
  7.3463634e-02
 -5.5956770e-02
 -4.9944848e-02
  3.1123385e-02
 -2.8674966e-01
  1.8408993e-02
 -9.8940201e-02
  9.5760599e-02
 -1.7197898e-02
 -1.2558673e-01
 -1.5721841e-02
  1.6170288e-02
 -3.4659171e-01
 -9.3826409e-03
  2.2091433e-02
  2.5152835e-01
 -1.2312797e-01
  7.8899406e-02
  3.8044203e-02
  1.3680371e-02
 -2.4689254e-01
 -1.4037006e-01
 -4.4706758e-02
  1.7983431e-01
  4.5773171e-02
  1.4120731e-01
  1.7796767e-01
  4.2267382e-02
 -5.8072682e-02
  1.3288935e-01
  1.9243018e-01
  6.1493635e-02
  1.0303944e-01
  8.7460265e-02
  3.7455991e-02
  6.6639945e-02
  6.1675549e-02
 -4.8013832e-03
 -1.2311599e-01
  1.2522320e-01
  1.6009958e-01
 -9.0376884e-03
  3.5522435e-02
  8.3367810e-02
 -9.2956878e-02
  1.8916603e-02
  1.5621107e-02
 -4.6825409e-03
  1.4743716e-01
 -4.8979186e-03
 -1.0439098e-01
 -2.2044748e-02
  1.9541848e-02
  3.5579823e-02
 -8.5042387e-02
  6.7980789e-02
  6.8278663e-02
  7.2509944e-02
 -2.4291407e-02
  9.3876041e-02
  1.3723896e-01
 -4.4182369e-01
  4.7517839e-01
  1.1605985e-01
 -8.5569358e-01
  1.2757866e+00
  7.0619369e-01
  2.2576600e-01
  7.3490441e-01
  3.3564970e-01
  1.0609071e+00
  5.3135669e-01
 -2.2201128e-01
 -8.7067848e-01
  3.6079094e-01
  4.3557024e-01
 -1.5193637e-01
  1.9695607e-01
 -6.5846288e-01
  5.5245733e-01
 -8.7596744e-01
  1.8920036e-01
  9.3012929e-02
  6.7999125e-01
  6.8016779e-01
  4.7672518e-02
  1.2507208e-01
  6.1097246e-02
 -7.6399550e-02
 -1.2983005e+00
  6.8175989e-01
 -1.5082122e-02
 -3.4871310e-02
  3.6892641e-01
  1.9737336e-01
  1.7910320e-01
  9.5354564e-02
 -1.2277331e+00
  1.9080521e-01
  6.2638783e-01
 -3.5631767e-01
  4.6658441e-02
  6.1882257e-01
  1.4977113e+00
  3.3690599e-01
 -9.1650736e-01
  5.7648432e-01
  7.6114166e-01
 -1.7256638e+00
 -1.2845938e-02
 -2.2829109e-01
 -7.6708812e-01
 -1.7017137e+00
  1.9951451e-01
  3.2620773e-01
  1.8855788e-01
 -1.0686252e+00
 -5.2849498e-02
 -4.7811726e-01
 -3.3945227e+00
  2.2784966e-01
  4.3934661e-01
 -2.6886061e-01
  2.8890806e-01
 -5.4975346e-02
  1.7056331e-01
 -3.9276081e-01
  4.5952359e-01
  1.5945522e-01
 -1.6397491e-02
 -9.3780190e-01
  3.3976831e-03
  5.9618813e-01
 -2.8366837e-01
 -3.6560994e-01
 -6.0687953e-01
  4.5219418e-02
  3.0901784e-01
 -6.1646309e-03
  2.4626517e-01
 -8.2000993e-02
  3.6018613e-01
  3.0377170e-01
  3.4140617e-01
 -4.8114884e-01
 -1.1332016e-01
 -6.9469070e-01
 -4.5113361e-01
  2.7689964e-01
  1.4348878e-01
  1.6886557e+00
  1.0258050e+00
 -3.0946481e-01
 -1.7860180e-01
 -1.6919137e+00
 -1.4530673e+00
  6.4913124e-01
  2.3606727e+00
  2.0041203e+00
 -1.6134980e-01
 -2.0341198e-01
 -2.7718410e-01
  3.1422628e-03
  1.6745903e-01
 -2.2360526e-02
 -7.6615214e-02
 -3.1405002e-02
 -3.7715760e-01
 -4.3271235e-03
  4.2328585e-02
  3.8676980e-01
 -1.4231709e-01
 -3.0178335e-03
 -4.6972895e-01
 -5.3336310e-01
 -5.3390169e-01
  7.3559731e-01
 -3.7360162e-01
  6.5329716e-02
 -2.6291853e-01
 -3.9326635e-01
 -3.2290375e-01
  1.1798549e-01
  4.3073967e-01
  2.0895146e-01
 -1.6026590e-02
 -5.9982516e-02
  2.6455784e-01
 -8.4764794e-02
 -8.3054584e-01
  3.6271250e-01
 -3.8154852e-02
 -3.9955109e-01
  2.7133843e-01
 -4.9793074e-01
  7.9944170e-01
 -1.0779919e-01
 -2.1073235e-02
  2.3959091e-02
 -3.2491750e-01
 -8.2509351e-01
  8.5573599e-02
 -2.1877480e-01
 -1.6242982e-01
  2.5287592e-01
  3.3794358e-02
  1.0816196e-01
  1.2486160e-01
 -4.3652794e-01
 -1.4944621e-02
 -9.3303248e-02
  1.0552431e-01
 -2.6349239e-02
  1.9501583e-01
 -2.4187537e-02
  2.4562883e-01
  5.3763784e-02
 -1.6524887e-02
 -1.1297824e-02
  3.2951292e-02
  1.1880261e-01
  2.0558728e-02
  3.0555509e-02
  2.3373570e-01
  5.2123588e-02
  2.9663259e-01
  6.1911173e-02
 -1.7675334e+00
  5.1952738e-01
 -7.1680379e-01
  5.8662076e-02
  8.0451995e-01
  1.1969428e+00
 -1.4156201e-01
 -3.3194330e-02
 -6.8281949e-02
 -5.1277173e-01
  4.3052292e-01
  1.4238183e+00
 -1.0387340e-01
  1.0432674e-01
  1.3037013e-01
 -9.1678065e-01
 -6.5271124e-02
 -5.4682709e-02
  3.7028563e-01
 -1.6381966e-01
  1.0322899e+00
 -1.6943033e-01
 -1.5409086e+00
  1.2133599e-01
  8.6728835e-01
  2.8721145e-03
 -1.6289425e-01
  3.2355577e-01
  8.7906919e-02
 -5.4391343e-02
 -2.2573845e-01
 -3.5916010e-01
 -4.3555930e-01
 -8.3201897e-01
  3.7002391e-01
  3.2241678e-01
  1.6755208e+00
  6.8917073e-02
 -1.4310400e+00
 -3.6287209e-01
  6.3594383e-01
  3.0438676e-02
  6.5369076e-01
  2.1118300e-02
 -4.0726101e-01
  1.1341091e-01
  1.5794623e-01
  7.9837643e-02
  6.1522119e-02
  3.8480726e-01
  5.3148840e-02
  1.8583230e+00
 -2.6540154e-01
  6.0776597e-01
  6.3635424e-02
 -3.2511759e-01
 -5.5864519e-01
  8.5365169e-02
 -5.4063928e-01
 -1.8446350e-01
 -3.7521732e-01
 -5.0586332e-02
  4.2073376e-02
  5.8428701e-02
 -7.8692085e-01
  6.0540599e-01
  1.1635856e-01
  4.9846377e-02
  1.3230429e+00
 -1.7217447e-01
  1.9881954e-02
 -1.3747513e-01
  5.1339742e-02
 -6.0450774e-01
 -7.2582379e-02
 -3.8136321e-01
 -9.7586803e-02
 -2.6439389e-02
  8.7311968e-02
  3.7941154e-02
 -4.3100726e-02
  1.6683029e+00
  2.8959852e-01
 -3.0748689e-01
 -2.6166880e-01
 -1.3274018e-01
  7.9456776e-01
  9.1122448e-01
 -1.4183344e+00
  1.1130564e+00
 -4.7791982e-01
 -1.2625901e-01
 -1.8217181e-01
  5.5575597e-01
  6.3092327e-01
  9.0076439e-02
 -2.2315555e+00
  4.6864673e-01
  1.0191534e+00
 -3.7200788e-01
  6.2840141e-02
  7.8102696e-01
 -1.5494776e-01
 -8.6749405e-02
  2.3533580e+00
  1.2460966e+00
 -5.5102915e-01
  2.1826396e+00
  2.2100748e-02
  1.0550900e+00
 -5.9198612e-01
  1.6117898e-01
 -1.2998301e+00
 -2.5783005e-01
 -1.7238677e+00
  3.9076653e-01
 -1.6927170e+00
  5.8655649e-01
  1.2750309e+00
 -4.4955769e-01
 -1.8529345e-01
  5.6168789e-01
  2.6638091e-01
 -1.5379438e-01
 -2.3597085e-01
  3.8534722e-01
 -1.4230143e+00
  8.3911918e-02
  1.0269115e+00
 -1.4384674e+00
 -1.2583363e-01
 -5.9873277e-01
  3.6079839e-01
  1.1073846e-01
 -7.1560073e-01
  2.2084273e-01
 -2.5572906e+00
 -8.8056158e-03
 -2.2961615e-01
 -1.8684559e+00
 -7.7300710e-03
 -5.7938153e-01
 -1.0399914e+00
  4.2605795e-02
  5.7006824e-01
  1.3853052e-02
  5.3096992e-01
 -1.4209357e-01
  2.6679191e-01
 -2.2206305e-01
 -2.1795860e-01
  1.2114060e-02
  2.2509481e-01
 -4.9805630e-02
  1.9414379e-01
  8.6176530e-02
  1.9346593e-02
  1.4420103e-01
  2.0069043e-01
 -7.5922720e-02
  1.3555062e-01
  3.2679671e-01
 -1.4108694e+00
 -9.3416728e-02
 -2.0393682e-01
 -2.4351902e-01
 -3.6909905e-01
  4.7997263e-01
 -6.1637324e-01
 -5.5009514e-01
 -4.5541946e-02
 -2.7866981e+00
 -1.0743372e-02
  5.2194536e-01
 -4.3941668e-01
  8.1704026e-01
  2.3376429e-01
 -9.7986215e-01
 -1.7117336e-01
 -1.0546383e-02
 -2.4576195e-01
  3.4089372e-02
  5.4326534e-01
  7.7790625e-02
  5.2571076e-01
  7.0376731e-03
  5.6217057e-01
  7.0325738e-01
 -3.6344540e-03
 -1.4537460e+00
  3.8475788e-01
 -1.0929932e-01
  9.1667145e-01
  6.1922442e-02
  3.0107743e-01
  1.5480226e-02
  3.7641533e-02
 -5.4420930e-01
 -7.7618524e-02
 -1.1416433e+00
  4.5620286e-01
 -1.2036711e-01
  7.8674436e-01
  6.5368339e-02
  2.1112597e-01
  6.5257899e-02
  1.5909139e+00
 -9.4454445e-02
  3.6182612e-01
  1.1992536e+00
 -3.5038879e-03
 -5.0037748e-01
 -5.2905630e-02
  1.3806976e-01
 -1.0734870e+00
 -6.6849247e-02
  5.0135262e-02
  3.7973303e-01
 -1.0281664e-01
  1.1171735e-01
  1.2010716e-01
 -1.6653443e-02
 -6.7985274e-02
  8.9788832e-02
  1.4179336e-02
  8.8875696e-02
  1.1664369e-02
  9.8193428e-03
  1.5062885e-03
  5.6954043e-04
  1.3244603e-02
  3.2241338e-01
  9.8342913e-01
 -2.2948425e-01
  5.6709476e-02
  4.1559998e-02
  4.9534444e-02
 -2.1767527e-01
 -1.2347549e-03
  3.3140668e-01
 -2.6424065e-01
  1.0051476e-01
  4.7789551e-03
  3.0423608e-01
  5.9931163e-02
  9.6248262e-02
 -1.0763127e-01
  2.4385694e-02
  9.7258985e-03
 -1.1145594e-01
  7.1177073e-04
 -3.6310872e-01
  1.4933608e-03
  7.0698276e-02
  5.0713643e-03
  3.4130812e-02
 -1.4303863e-01
  3.9448142e-01
 -1.8180324e-01
  1.4208841e-01
  6.7509964e-02
  9.3318254e-02
 -2.2665074e-01
  1.5398121e-01
 -2.1806207e-01
  4.9123518e-02
 -1.4668877e-02
  1.1368872e-01
 -6.0665108e-02
  1.0360694e-01
 -7.4061088e-02
 -1.4175914e-01
  1.1876773e-01
 -5.6989737e-02
 -1.6038188e-01
 -3.3585399e-02
 -1.0425997e-01
  3.3334877e-02
  4.3689091e-02
  8.1433296e-02
 -2.9446909e-02
 -8.3795771e-02
  1.8146770e-02
 -6.6634163e-02
 -9.9273287e-02
 -1.6161515e-01
  9.4038323e-02
 -7.0984192e-02
 -1.4935264e-01
 -9.7406507e-02
  5.1824695e-01
 -1.6271889e-02
 -1.3067013e-01
 -5.8798778e-01
  5.7198569e-02
  7.1659401e-02
  2.7095594e-02
  2.0800143e-02
  1.0877445e-01
  2.6002368e-02
 -1.7328739e-02
  2.4243829e-01
  1.7808908e-01
 -1.2572262e-01
  2.7463883e-01
 -1.5292835e-01
  1.7611700e-01
 -1.8591575e-02
 -5.8263987e-03
 -3.3582054e-02
 -7.8358658e-02
 -5.4697983e-02
  2.1495764e-01
 -3.7437003e-02
 -6.9549859e-02
  3.0559686e-01
  1.6600850e-01
 -1.1444853e-01
 -1.7787097e-02
  1.5071356e-02
 -2.2523960e-01
 -1.6559535e-01
 -5.1588368e-02
 -1.2742928e-01
 -1.0718079e-02
  3.6911666e-02
  3.4946706e-02
 -1.6495219e-02
  1.2028911e-01
 -5.7674339e-04
  8.5410319e-02
 -9.9558368e-02
 -5.7513680e-02
 -3.9890423e-02
 -7.4874319e-02
  2.7148253e-01
 -2.4410500e-01
 -3.2519788e-01
 -2.8536774e-02
 -4.2458865e-01
  1.8934256e-01
  6.3348208e-03
  3.6620162e-02
 -1.1058996e-02
  1.0602954e-01
 -1.1303416e-01
 -1.6249192e-01
 -1.3374892e-01
 -1.9941491e-01
  5.4532290e-02
  2.1811126e-01
 -1.5493825e-01
  2.0930551e-02
 -6.9165170e-02
  4.5541670e-02
 -2.4610316e-02
  1.3498913e-01
 -1.4063761e-01
 -1.0965984e-01
  8.5574284e-02
  1.7412437e-01
 -1.2323707e-01
 -3.1735173e-01
  2.1954256e-01
 -3.3673942e-01
 -3.2508131e-02
 -2.0072756e-02
 -4.9783818e-02
 -1.6812047e-01
 -2.6194170e-01
 -4.2905793e-02
 -1.8775206e-02
 -3.9027702e-02
  2.8134184e-02
  7.5200275e-02
 -6.1899405e-02
 -1.8707453e-03
 -9.3710236e-02
 -1.2599036e-01
 -5.0606612e-02
 -8.2525402e-02
 -2.7427793e-02
 -5.1922351e-01
 -3.0194893e-02
  3.4178052e-02
  6.8858517e-03
 -5.6284424e-02
 -3.0689005e-02
  8.5540131e-02
 -6.1046418e-02
  7.4949600e-02
 -1.8192656e-02
  8.2026534e-02
  1.4766014e-01
  1.7930316e-02
 -4.9132895e-02
  3.3192059e-01
  1.1579821e-01
  1.3912216e-02
  1.6560310e-01
  6.4796485e-02
 -1.3177647e-02
 -5.1593285e-02
 -1.8789345e-02
 -9.2874289e-02
 -8.0946125e-02
 -3.5668060e-01
  2.0370592e-01
  2.3586633e+00
 -9.8871130e-01
 -1.1281921e+00
 -4.7675130e-01
 -1.3811597e+00
 -4.5605284e-01
  2.7230482e+00
 -1.1420513e+00
 -1.9481182e+00
  7.4101068e-02
  5.3284740e-01
 -2.7912192e+00
 -6.7848569e-01
  9.6268153e-01
 -1.4444904e+00
  2.9810748e-01
  4.2176834e-01
  2.0008560e-01
 -1.9916181e-01
 -1.4702392e-01
 -6.5242328e-02
 -5.3765213e-01
 -1.0297824e-01
 -6.7660755e-01
  1.4739197e+00
 -7.8681731e-01
 -2.8161234e-01
 -5.1810343e-02
 -6.7708802e-01
 -7.4189615e-01
  3.7438810e-01
 -5.2606626e-03
  7.7307485e-02
 -1.0189623e+00
  1.9208281e-01
 -1.7862397e-01
  6.0044211e-01
  1.5626717e-01
  1.9295816e+00
  1.7094345e+00
  2.8092405e-01
 -3.7786338e-01
  8.6194390e-01
  4.8060797e-02
 -5.1497076e-02
 -1.9036217e-01
 -1.5448315e-01
  1.6150029e+00
  5.5427784e-01
 -7.3911792e-01
 -7.9721354e-02
  1.3945491e+00
 -3.0603301e-02
 -5.1369452e-01
 -2.6133358e-01
  1.0281669e+00
  8.4907021e-03
 -4.2350497e-02
  3.2414112e-02
  3.5085399e-02
  1.2577191e-01
  2.8749252e-02
  1.2619223e-01
 -3.9772701e-01
 -5.4984350e-02
  1.2392397e-01
  1.2928434e-01
 -3.1291507e-02
  1.2640546e-01
  4.8671383e-02
 -2.1615475e-01
 -1.6187605e-01
  1.5743053e-02
 -1.4421579e-01
 -9.9436140e-01
  1.4268318e-03
 -3.1640030e-02
  3.2627877e-02
 -3.0412748e-03
 -1.9541049e-01
  8.9041412e-02
 -2.1365710e-01
 -2.7088493e-01
  2.5070289e-01
  1.3938741e-03
  1.0722954e+00
 -2.6123780e-01
 -2.1656670e-01
 -4.0213987e-01
 -4.7468063e-01
 -2.9933229e-01
  1.4942394e-02
 -4.2550686e-01
 -1.3653415e-01
 -8.3847456e-03
 -3.7498626e-01
 -8.3327717e-01
 -1.6734217e-01
 -6.5790467e-02
 -5.6553131e-01
  5.0243789e-01
  6.5892643e-01
 -2.2314327e+00
  4.3212390e-01
  2.6773584e-01
 -5.8776885e-01
 -9.2674422e-01
  8.9505029e-01
  9.6835345e-01
  1.3171835e+00
  2.7880529e-02
 -8.0882110e-02
  5.9387726e-01
 -5.8111501e-01
 -1.1141254e+00
 -1.1207342e+00
 -1.2957213e+00
 -1.1282619e+00
  2.1429725e+00
  1.0819895e+00
 -2.8655016e-01
  4.4828396e+00
  1.1360587e+00
  1.3735212e-02
  1.9930002e-01
  4.3073609e-01
  4.9468812e-01
 -1.8397118e+00
 -5.3908598e-01
 -4.2742166e-01
 -2.7663932e+00
 -2.8687139e+00
  2.8745389e+00
 -1.9365387e-01
 -2.0980892e+00
 -6.9796312e-01
 -7.5022763e-01
  2.4263999e+00
  8.7322891e-01
  1.0210499e+00
  2.1836326e+00
  8.0541801e-01
 -3.2313073e-01
 -1.3929133e+00
 -1.8710330e-01
  2.7775124e-01
 -1.4971125e+00
  2.8008905e-03
 -2.6175302e-01
 -8.3634472e-01
  1.0377882e+00
 -1.2218276e+00
 -3.4089071e-01
  8.4330654e-01
 -2.3781417e-01
 -2.6284475e-02
  3.2631397e-02
  7.7745914e-01
  8.4796019e-02
  7.2293137e-03
  5.8282208e-01
  1.0803999e+00
  3.1002003e-01
  2.8922396e-02
  3.6851540e-01
 -7.7851504e-02
  4.7090766e-01
  2.8168620e-03
  7.1371287e-02
 -2.8361522e-02
 -4.2695838e-01
 -4.8520136e-01
  4.1034665e-02
  1.5361139e-01
  9.9693537e-02
 -3.3066489e-02
  4.4494784e-01
 -2.6880485e-01
 -1.4848633e-01
 -2.7132275e-02
  1.4132837e+00
  8.0039245e-01
  7.9735035e-01
  3.2471273e-02
  5.4117382e-01
 -3.8593125e-01
  1.7363870e+00
 -1.8661378e-01
 -4.9594540e-02
 -4.7177849e-03
 -8.6488307e-01
 -7.8099750e-02
  3.9115757e-01
  2.8881967e+00
 -6.1282605e-02
  9.1430372e-01
 -2.4670169e+00
  5.6853437e-01
  1.1796315e+00
 -1.6881335e+00
  1.9639057e-01
 -8.1247181e-01
  5.0009876e-01
  1.7122816e-01
 -3.9730546e-01
  1.1354721e+00
  1.2370807e+00
 -5.7774270e-01
  3.8367209e-01
  4.7825643e-01
  1.0122865e-01
  2.2583506e-01
 -2.8401926e-01
  6.9537073e-01
  4.0472895e-01
  8.0292962e-02
  2.9704880e-02
  2.8733605e-01
 -6.6088295e-01
 -1.0858035e-01
 -1.0972763e-01
  1.0501821e-01
  3.3470504e-02
  1.2432662e-01
  2.6054808e-01
  2.4551237e-02
  1.6569063e-01
  5.7401776e-02
 -2.3575877e-01
  1.0944726e-02
 -4.6820831e-01
  1.2891015e-01
  9.2352509e-02
 -1.0249375e-01
  1.1022382e-01
  3.1085920e-01
 -3.2472260e-02
  3.5274211e-01
 -2.4624975e-02
  1.2506089e-01
  7.2940730e-02
 -6.6792499e-03
 -1.3303246e-02
  5.5960149e-01
  1.8805309e-01
  4.4325629e-01
  7.6125330e-01
 -4.1581142e-01
  2.6734653e-01
  2.2703917e+00
 -7.0985413e-01
  4.2125830e-01
 -4.9605080e-01
  6.1878610e-01
  7.9192817e-03
  2.6082644e-01
  3.8801484e-02
  8.9257127e-01
  1.6519381e+00
 -1.9408663e-01
 -7.7841532e-01
 -3.0456828e-02
 -1.4124302e+00
 -1.1524011e+00
  1.2230835e+00
  1.7872138e+00
  4.6535143e-01
  1.2691501e+00
  3.5632718e-01
  4.5440295e-01
 -2.0441630e+00
 -3.4895664e-01
 -5.2778429e-01
 -4.0743418e-02
 -7.4046165e-02
  9.5255738e-01
 -7.5912420e-03
  5.0067180e-03
  7.3905158e-01
  4.6990529e-01
 -9.9091375e-01
  1.5666099e-01
 -2.0738043e-02
  3.6464196e-02
  1.0617515e+00
  2.2878330e+00
 -2.5052476e-01
  5.5994928e-01
 -2.1770860e-01
  1.7143551e-01
 -5.2410293e-01
 -1.4665049e+00
  4.0993291e-01
 -2.3333341e-02
  1.1541759e+00
  2.2856181e+00
  6.0146105e-01
  1.7943548e+00
 -1.7818210e+00
 -8.4058505e-01
 -5.4810160e-01
 -3.4816971e+00
  1.0554899e+00
  1.3305972e+00
 -1.6207179e-01
 -6.5080255e-01
 -8.6016232e-01
 -1.0579481e+00
  8.7531723e-02
  2.9221013e-02
  2.0673843e-01
 -8.9492613e-01
  9.3077105e-01
 -7.4627101e-01
  1.5632937e+00
 -2.7034932e-01
 -9.4013351e-01
  2.4801579e-01
 -1.5079786e-01
 -2.3290405e-02
 -1.5357765e-02
 -1.3873510e-01
 -1.6031066e-01
 -7.8570378e-01
 -2.3832957e-01
 -6.2486574e-02
  2.4703544e-02
 -2.0227583e-01
  6.9586688e-01
  4.2056996e-01
 -1.7477821e-01
 -2.2172511e+00
  4.2076547e-02
 -5.5116205e-03
  8.4835857e-01
 -8.5212731e-01
 -1.9926013e-01
 -3.6058566e-01
  1.8303182e+00
 -6.7090593e-02
  7.2816782e-02
 -1.9308227e-01
  3.3347952e-01
  1.3207270e+00
  2.6092686e-02
  1.8505653e-02
 -2.1901122e-01
 -4.9003485e-01
 -1.1100721e-01
  2.2817552e-02
  7.6228899e-01
 -9.2259593e-02
 -3.8572453e-02
  4.5670083e-01
 -1.0551763e-01
 -2.0113572e-01
 -1.4981009e-01
 -1.3962968e-01
  4.5285169e-02
  5.0239217e-01
  6.5615231e-01
 -4.8093647e-01
  1.2237068e-01
 -1.0728715e-01
  4.3075237e-01
 -2.7182730e-02
 -3.8801610e-01
 -7.8073062e-02
 -6.4616013e-01
  7.7411360e-01
  7.5381064e-01
 -1.1107117e-02
 -4.2862132e-01
  3.3165079e-01
  1.4749359e-01
 -3.1879517e-01
  9.9751316e-02
  1.1247156e+00
  4.9171492e-01
  6.7652211e-02
  1.4271038e+00
  7.1611583e-02
 -7.8472756e-02
  8.6955076e-01
  9.4529891e-01
  2.7896184e-01
  2.9757451e-02
  5.2842510e-01
 -2.7871481e-01
 -1.7796510e-01
  2.1203142e-01
  4.2895544e-01
  2.9313123e-01
 -6.2116613e-03
 -8.7966263e-02
 -9.5582884e-03
  6.5660886e-02
  7.6878509e-03
 -1.4130270e-01
  6.6044061e-03
  1.5596396e-01
 -1.6939500e-01
 -6.1657224e-02
  3.0771203e-02
 -1.9009234e-01
  1.1949202e-02
 -1.0267804e-01
  1.6957045e-01
  4.4493177e-03
  1.7600365e-02
  8.7137258e-01
  5.6193164e-03
 -1.9260810e-01
 -7.8143585e-01
 -3.4485087e-02
  4.6312976e-01
  5.4934955e-01
  1.1696971e-01
  7.1344560e-01
 -3.1029291e-02
  3.6814544e-01
 -9.2606947e-02
 -2.8219876e-01
  1.8053776e-01
  5.4021472e-01
  3.0769330e-01
  1.9954617e-01
 -3.7997374e-01
  3.4917095e-01
 -4.0761033e-01
  7.4796981e-01
 -2.8971428e-01
  1.0235399e-01
  1.6369940e-01
 -8.3506024e-01
 -2.0815324e-02
  1.2662051e+00
  9.0663981e-01
 -2.1593063e+00
  1.1872324e+00
 -4.1834444e-01
  2.2896912e+00
 -6.4802289e-01
 -9.1477036e-01
  1.6539624e+00
  5.2490449e-01
 -3.5370404e-01
  6.2281121e-02
 -3.5490698e-01
  1.0941100e+00
 -9.3728453e-01
  1.0101045e+00
 -2.4848077e+00
 -4.0364695e-01
 -1.4366211e-02
  1.3008347e+00
  9.9589133e-01
 -2.7561972e-01
  1.2598425e+00
  2.2570810e+00
  4.5672366e-01
 -1.2126530e+00
  1.5020792e+00
  4.3241420e+00
 -2.2160256e-02
 -1.1570452e+00
 -1.8670231e+00
  6.7793810e-01
 -3.4494715e+00
 -1.2464693e+00
  1.1040400e+00
 -7.8963511e-02
  1.2469893e+00
 -1.2818575e-01
  5.3172594e-01
  5.0488484e-01
 -3.5654584e-01
 -1.7621222e+00
 -1.4114263e+00
 -6.7583656e-01
 -3.7822226e-01
 -5.4256928e-01
 -2.9459873e-01
 -9.9468058e-01
  2.4893156e-01
 -3.1465769e-02
  6.7425869e-02
  7.0059329e-01
 -5.5654496e-01
 -9.2157328e-01
 -5.7641894e-01
 -2.2886144e-02
 -7.3103881e-01
 -8.1534398e-01
 -4.8979703e-01
 -8.2289928e-01
  8.1515187e-01
  5.6735361e-01
  7.2580464e-02
 -3.0220509e-01
 -8.3385766e-01
  1.9142132e-01
 -2.5279900e-01
 -5.3198344e-01
 -2.6416036e-01
  5.0359559e-01
 -3.4580156e-01
 -4.3192530e-01
  1.5836042e+00
  3.5889807e-01
 -6.7909295e-03
  3.5429949e-01
 -1.1749166e+00
  2.4521621e-01
 -3.4499466e+00
  1.2372700e-01
 -1.0628117e-01
 -6.2081408e-02
  2.2599290e-01
 -3.7996534e-02
 -4.6457580e-01
  9.9542029e-03
 -1.8068296e-01
 -6.8214685e-02
 -4.8849452e-01
 -9.1560274e-02
 -1.5214586e+00
  4.2151732e+00
 -5.5639569e-02
 -1.1212718e+00
 -7.7157819e-01
 -4.6014506e-04
  2.1932542e+00
 -7.1275562e-02
  1.9968358e-01
  3.5450149e-01
  1.7847174e+00
 -5.5377394e-01
 -5.9490359e-01
 -1.0320030e-02
 -5.7656395e-01
 -1.0041642e+00
  3.2212245e-01
 -8.7783074e-01
 -3.3570418e-01
 -1.6384117e-01
 -1.2756027e-01
 -3.4829560e-01
 -5.1657073e-02
 -1.2640117e+00
 -1.7346472e-02
 -2.2444157e-01
 -3.4337750e-01
 -2.5008561e-02
 -2.2024252e-01
 -2.3911478e-02
  1.8009912e-02
 -1.9525770e+00
  6.5790571e-02
 -1.9329060e+00
  2.8911430e-01
 -6.5034546e-02
 -2.9750332e-01
 -1.6805072e-01
  1.0952752e-01
 -1.2711358e-01
  1.3234814e-01
 -1.1287269e-03
  2.9469252e-02
  4.1579109e-02
 -5.0287306e-02
 -2.4865773e-02
 -3.5128251e-02
 -1.3515563e-02
 -4.4994596e-01
  2.2985492e+00
 -6.3131385e-02
  1.4380786e+00
  7.5564998e-01
 -4.2825601e-01
  3.1665152e-01
 -9.0184331e-01
  2.5288165e-01
 -2.9941926e-02
 -1.4192113e+00
 -1.1770670e+00
  1.3923872e-01
  8.2718357e-02
 -2.6598755e-01
 -7.7759886e-01
  2.8790722e-02
  2.7268939e-02
  3.4720945e-01
  2.1900289e-01
 -2.1622346e-01
 -1.1944838e+00
  1.0919434e-01
 -1.4380674e+00
 -2.8501660e-01
  1.0589050e-01
 -2.9268193e-01
 -9.6846141e-02
 -4.3427665e-03
 -1.5351056e-01
  2.8681472e-01
  6.1346132e-01
 -9.3950881e-03
  5.8164544e-02
  2.4834181e-01
 -5.9160297e-03
  8.1623811e-03
 -2.8561598e-02
  4.3463606e-02
 -1.6336443e-01
  1.2473866e-01
  5.8873869e-02
  1.1317565e+00
  2.1572870e-01
  2.9000005e-01
  3.6897862e-01
 -6.9860429e-01
 -3.2588327e-01
  5.6826168e-01
 -4.4751283e-02
  8.1420973e-02
 -4.0312767e-01
  2.7016911e-01
  4.3340754e-02
  5.4526782e-01
  2.5660802e-02
  1.3891380e-01
 -5.0513113e-01
 -3.1917727e-01
  2.2565722e-01
  1.0256451e-01
 -4.7421002e-01
 -9.0473689e-02
  5.9797108e-02
  3.6723338e-02
 -1.7217843e-01
 -4.7397339e-01
  7.2366215e-02
  6.4533573e-01
  1.2681106e-02
 -1.3416015e-01
 -1.6947745e-01
 -1.6467862e-02
 -2.3362976e-01
 -7.8124762e-02
 -2.0184368e-03
 -3.0715883e-01
 -3.8485571e-03
 -9.6096292e-02
  1.7452704e-02
 -1.0666680e-01
  1.3027583e-01
  4.2384006e-02
 -2.2750616e-02
  2.0669174e-01
 -1.3436737e-02
 -1.0304029e-01
  2.1574810e-01
 -2.2382459e-02
  1.0552658e+00
 -5.8035910e-01
 -1.2776479e+00
 -8.7423220e-02
  2.4173470e-01
  1.0448075e-01
  7.2219807e-01
  1.7118344e-01
 -2.7139339e-01
  5.5511361e-01
 -5.2442670e-02
 -1.1706322e+00
 -5.5125487e-01
 -1.5462656e-01
 -4.1815132e-01
 -2.9953524e-01
 -6.9452333e-01
  4.4509330e-01
  4.6543691e-01
  1.8136256e-04
 -5.2250717e-02
 -4.3347016e-01
 -5.5335373e-02
  8.7703079e-02
 -3.9387667e-01
  1.7538895e-01
  3.2636255e-01
 -6.2665656e-02
 -1.2646142e-01
  6.4320140e-02
 -8.2605821e-01
  1.6030875e-01
 -4.0214288e-01
  1.7201227e-01
 -2.4079029e-01
  4.2713419e-01
  1.0329387e+00
 -3.3030316e-01
 -5.0913483e-02
 -4.2245439e-01
 -1.1409346e-01
 -2.4282625e-02
 -7.0483679e-01
 -6.2017077e-01
 -2.7199280e-01
 -7.0550755e-02
 -1.2347895e+00
 -4.5555913e-01
 -1.4056731e+00
 -4.1635406e-01
 -4.4881311e-01
 -9.9154681e-02
 -5.6480125e-02
  4.6495152e-01
  2.6189363e-01
 -2.4849086e-01
  2.2931761e-01
  5.5348266e-02
  7.1011657e-01
 -6.8445364e-04
 -3.1570527e-03
 -1.9951545e-01
 -8.7711856e-02
 -1.3573025e-01
  2.8435153e-01
  7.8154411e-03
  2.0659525e-02
 -8.4425606e-02
  2.6308259e-01
 -1.6895744e-01
 -1.4492575e-02
  3.3342004e-02
 -1.1912303e-01
 -6.2032443e-02
  3.4169771e-02
 -1.8052152e-01
  1.7295593e-01
  4.9664386e-02
  1.9140662e-01
 -2.2140026e-01
  1.0173615e-01
  3.3302877e-02
  1.1054903e-01
 -7.6537453e-02
  9.7092703e-02
 -2.7267072e-01
 -7.1316622e-02
  2.6080201e-04
 -9.8838337e-02
  2.0506778e-01
 -2.7724746e-01
  1.3283230e-01
 -7.3134221e-02
 -1.1029296e-01
 -4.8733051e-03
  1.6264233e-01
  2.0943617e-02
  2.8809868e-02
  8.5632861e-02
  3.4481671e-02
  1.1125340e-01
 -5.9548438e-02
 -4.8758902e-02
  1.0730715e-01
  1.6602086e-02
 -9.0138547e-02
  4.3651848e-03
  1.7170154e-01
 -3.1773591e-01
  1.9273650e-02
  2.2548653e-01
 -4.4396240e-02
  1.8485866e-01
 -6.3784868e-02
 -3.6523353e-02
  1.1728970e-01
  3.4967549e-02
 -7.3258549e-02
  1.1840894e-02
  5.9823636e-03
  3.7467843e-01
  1.4259796e-01
  4.0166877e-02
  9.1702357e-02
 -4.0445678e-02
 -3.2453914e-03
  7.3584951e-02
  1.9454718e-01
 -1.4921013e-01
 -1.3424230e-01
 -2.4122219e-01
  1.4770510e-02
 -7.5529113e-02
 -3.6261562e-02
  8.8403719e-03
 -7.5954616e-02
 -1.9061583e-01
 -4.8176844e-02
  5.8588877e-02
 -6.3241251e-02
  2.0154294e-02
 -1.8909194e-01
 -6.7859560e-02
  1.2309788e-01
 -1.2296645e-01
  4.3008944e-01
 -9.3585275e-02
  3.7656792e-02
  6.5593347e-02
  1.6806068e-01
  4.7863904e-02
  6.4014914e-03
 -3.1518000e-03
 -2.8269729e-01
 -1.0824764e-01
 -9.2430543e-03
 -2.0167746e-02
  2.7170534e+00
  3.7093230e-02
  1.6445041e+00
 -9.5855278e-01
 -9.6694566e-03
 -4.8503006e-01
  1.1124784e+00
 -1.4967777e-01
  1.4124048e+00
  2.9681373e-01
  3.9214221e-01
  5.8892095e-01
  1.1036061e-01
  2.1833692e-01
  4.7256228e-01
  8.5561566e-02
  9.2536902e-01
 -4.8034874e-01
  1.1385255e-01
 -4.7590533e-01
 -2.6393622e-01
  5.6929961e-02
 -6.6580617e-01
 -7.7834058e-01
  2.2383519e-01
 -6.6130131e-01
  4.8091358e-01
  1.5799744e-01
  7.9182744e-01
  4.1579551e-01
  8.1529759e-02
 -8.6435914e-02
  8.8326615e-01
 -8.7212985e-03
  1.0250350e-01
 -4.0803570e-02
 -6.8704522e-01
 -3.5417852e-01
 -1.1775963e+00
 -4.3846008e-01
 -1.3711011e-01
  1.2903993e-01
 -9.0296373e-02
  3.5588562e-01
  3.7650368e-01
 -3.8471201e-01
  3.5302547e-01
  1.7153621e-01
 -8.5444525e-02
 -2.5243399e-01
 -1.6780177e-02
  5.1011592e-03
 -1.4328041e-02
  2.7363130e-01
  9.1070168e-02
 -3.4728538e-02
  2.0926137e+00
 -2.9724440e-01
 -1.0624794e-01
 -1.7666009e-01
  1.5574144e-01
  1.7546304e-01
  1.0453842e+00
  5.5909169e-01
  4.0739092e-01
 -2.2144952e-01
 -4.7556421e-01
 -4.1267377e-01
  1.5542708e-02
  4.3523684e-04
 -8.2915433e-02
  2.6036346e-01
 -1.8590744e-01
  2.9670801e-03
 -4.0441394e-01
 -2.8718160e-02
  7.3659696e-02
  2.6072100e-01
 -1.7347018e-01
  7.2846949e-02
 -8.8484794e-02
  2.3039162e-02
 -5.5408412e-01
  1.4143336e-01
  4.1919822e-01
 -1.0461959e+00
  6.1783028e-01
 -5.3101075e-01
  5.0915760e-01
 -3.3119503e-01
 -1.5644786e-01
  8.4692556e-01
 -2.7063960e-01
 -9.6145242e-01
 -6.5729469e-01
  4.2918485e-01
  1.8702922e+00
  2.7919295e-01
 -1.0053061e+00
  6.4822239e-01
 -1.2480285e+00
 -6.2137002e-01
 -2.4251409e-01
  1.1785359e+00
  1.7999067e+00
  4.6557891e-01
  1.5321528e+00
 -1.4854354e-01
 -2.4297476e+00
 -1.6934472e+00
  3.0867776e-01
  6.0109538e-01
  1.8704483e-01
 -1.4678422e+00
 -2.1585054e+00
  9.0758330e-01
  8.9686048e-01
 -4.3228266e-01
 -1.7455746e+00
  9.8750317e-01
  3.1299613e+00
 -2.4170315e+00
  2.9483860e+00
 -6.9938026e-02
  3.7742260e-01
 -1.7695080e+00
 -1.0236530e+00
  2.0771781e-01
 -3.2357392e+00
  3.5398358e-01
 -3.9451528e-01
 -7.1591794e-01
  2.9797845e+00
  2.2755351e+00
  6.5375739e-01
  1.7443486e+00
 -7.6600772e-01
 -2.9682498e+00
 -7.1479630e-01
 -1.2899750e-01
 -2.6547515e+00
 -9.4693840e-01
 -4.9305296e-01
  2.7069712e-01
 -1.7934304e+00
 -1.1330014e-01
  6.3240075e-01
 -4.5915514e-01
  1.2538918e+00
  1.6519990e+00
 -1.7287210e-01
  1.2817039e-02
 -5.8232099e-01
  1.0980438e+00
  1.9348746e-02
 -1.7336835e-01
 -5.9876949e-02
 -5.2223289e-01
  1.2613554e-01
  3.7715755e-02
 -1.9503312e-01
  3.1450642e-03
 -8.3282828e-02
  9.3055922e-01
 -8.6019173e-02
  3.5279071e-01
 -5.1409137e-01
  1.2597969e+00
 -2.6803541e-01
  6.6891402e-01
 -1.6178935e+00
  1.0447992e+00
 -8.7796438e-01
  2.9413220e-01
 -3.7455812e-01
  5.7633787e-02
 -1.1929696e-01
 -1.2582630e+00
 -1.1778014e+00
  7.8210952e-03
 -1.2984627e+00
  1.3336297e+00
  7.0904332e-01
  2.6340624e-02
 -1.3202177e-01
 -8.5490569e-03
 -2.5232214e-01
  3.6838928e-01
  6.9921058e-01
  9.8349668e-02
 -1.2086825e+00
 -3.5630234e-02
  1.3810925e+00
 -5.1777440e-01
  4.7850350e-01
  8.1761664e-01
 -9.0088910e-01
 -9.8638833e-01
  1.1378547e+00
 -1.3538058e+00
 -5.0467413e-02
  1.7614057e+00
  1.4986172e+00
 -3.9432004e-01
  1.3202573e+00
 -1.6349179e+00
 -4.6946004e-01
 -1.3424511e-01
 -6.8013889e-01
  7.8440541e-01
 -1.0338424e+00
 -8.7897098e-01
 -4.4014665e-01
 -1.5955392e+00
  4.5843899e-01
  1.0369759e+00
 -2.0166232e-01
 -9.8325026e-01
  2.2127774e-01
 -1.3679881e-01
 -4.6822152e-01
  1.1498002e+00
  4.8970571e-03
 -2.7713335e-01
  1.8715028e+00
 -3.6566904e-01
 -5.6401038e-01
  5.2627170e-01
  3.8187420e-01
  3.3150360e-01
  7.7879578e-01
 -6.2464207e-01
 -6.4957440e-02
  3.3538196e-02
 -5.0103211e-01
  1.7013645e+00
  2.1974048e-01
 -1.7641166e-02
 -7.1021199e-02
  3.3338284e-01
  2.9098150e-01
 -1.7765529e+00
  3.8398457e-01
 -1.0324705e-01
  5.2521080e-02
 -1.2842782e-01
 -5.2952302e-01
 -1.0155632e-01
  4.4542115e-02
  1.1687716e+00
  6.3926381e-01
 -6.3196605e-01
 -2.4886239e-02
 -6.0798621e-01
 -3.5560682e-01
  6.0951847e-01
 -6.8128496e-01
 -1.3929191e-01
  1.2624051e-01
 -4.2539927e-01
 -7.5096750e-01
 -4.9193740e-01
  6.8419677e-01
 -3.9964579e-02
  6.0740238e-01
 -1.2340577e+00
 -2.6392373e-01
 -1.9963302e-01
 -5.2093911e-01
 -1.1387619e+00
  1.5415184e-01
  1.0015421e+00
  8.9458460e-01
  5.2030528e-01
  9.8382181e-01
  1.6180559e+00
 -1.0485873e+00
 -6.2243681e-02
  6.6170025e-01
 -8.1969082e-01
 -2.3321669e+00
 -1.0625987e+00
 -4.0809473e-01
 -8.3983940e-01
 -1.9455265e+00
  2.1613181e+00
  5.5065412e-02
 -2.4182959e+00
  9.0912765e-01
  1.1593679e-01
  2.1392465e-01
 -7.8403991e-01
 -8.6101151e-01
 -1.0695999e+00
  6.9805861e-01
 -2.6019063e+00
  2.1650758e+00
 -2.2974396e+00
 -1.0993414e+00
 -9.0485436e-01
  9.8713636e-01
 -1.3023415e-01
  1.0260264e+00
  9.0993100e-01
 -3.5753674e-03
  2.0190928e+00
 -1.4570056e+00
 -1.7868866e-01
  6.6111046e-01
 -1.3058583e+00
  1.4182267e-01
  9.0063715e-01
  8.5337973e-01
  4.4650206e-01
 -1.9256866e-01
  1.8080507e-01
  2.1894195e+00
  1.0019029e-02
  5.2834868e-01
 -7.1724810e-02
  1.6775410e-01
 -6.0886241e-02
  7.3917854e-01
  2.1395263e-01
 -7.9518336e-01
 -2.3379450e-01
  1.7714055e-02
 -2.3363078e-01
 -9.5363140e-02
  6.3630992e-01
  1.7081279e-01
  1.4446156e-01
  7.1148500e-02
  2.1745062e-01
 -1.7369972e-01
  1.5441206e-02
  1.3450425e-02
 -9.3350172e-02
 -6.6412464e-02
 -2.7502397e-01
 -7.0408642e-02
 -3.6462301e-01
 -1.2788801e-01
 -3.0953407e-01
  4.0374741e-02
 -2.6282744e-02
  2.5933661e-02
 -1.6352985e-02
  3.5755243e-02
 -1.3003807e-01
  5.4643910e-02
 -5.3851333e-02
 -2.3037335e-02
  6.1008070e-02
 -2.4984805e-01
 -3.0153524e-02
 -5.2445378e-02
  8.1305221e-02
  5.2725561e-02
 -8.0126859e-02
 -1.1020078e-01
  5.3984813e-02
 -1.6584489e-01
 -1.0353719e-01
  8.8082634e-02
  9.1194279e-02
 -1.1141221e-01
  2.9851086e-02
  9.7908951e-02
 -1.5845871e-01
  3.4551751e-02
 -5.9889418e-01
  5.7535794e-02
 -9.0578441e-03
 -1.2914467e-01
 -8.6407475e-02
 -1.3085184e-01
 -2.7201589e-02
  3.5964872e-03
  3.5526254e-03
  6.8367362e-02
  1.0150264e-01
  9.0473577e-02
  9.6279629e-02
 -3.4583056e-01
  8.9914970e-02
  1.0357020e-02
 -1.4341903e-02
 -6.7861781e-02
 -1.5904245e-01
 -1.5815102e-01
 -3.3211913e-02
  5.1980056e-02
 -1.1035808e-02
  1.7662942e-02
  3.9955229e-01
  2.1371357e-02
 -3.2499801e-02
  1.2919214e-01
  1.2207369e-01
 -5.3531993e-02
 -1.2832983e-01
 -2.0870989e-02
 -5.0850920e-02
  1.4145689e-01
  2.2971360e-01
 -1.6933152e-01
 -2.8101765e-03
 -9.8917015e-02
  1.0306022e-01
  2.6342349e-02
  3.1330131e-02
 -1.3845214e-02
 -2.9621950e-01
  1.2416156e-02
  8.5862704e-02
  4.1464227e-01
  1.3806506e-01
  6.1302293e-02
 -5.1501635e-02
  1.3633372e-02
 -3.0751404e-01
 -5.0344102e-02
 -1.9851735e-01
  4.6886440e-02
  1.9713610e-02
 -3.6393078e-03
 -6.4385667e-02
 -3.8218040e-02
  9.3068369e-02
  1.8721540e-02
 -1.0528388e-03
  1.8182321e-01
  5.1374391e-02
  1.3593662e-02
 -1.1234760e-01
  9.1064818e-02
 -1.9236657e-01
 -4.5781650e-02
  1.5406154e-01
  2.1364994e-01
  2.7048999e-01
 -4.7119626e-01
  4.4712093e-02
 -1.0260408e-01
  6.1235163e-02
 -2.3064688e-03
 -2.1955946e-02
 -2.4293879e-01
  2.6042178e-01
  1.0281190e-01
  1.4116012e-01
  2.0475635e-01
 -1.2400203e-01
  4.5193397e-03
  1.5160553e-01
  7.2218254e-02
  1.9049700e-03
  1.8328054e-02
  1.1858269e-02
 -1.5102394e-01
 -2.3298103e-01
 -2.0583034e-01
  2.5988963e-02
  1.1164859e-02
 -1.4758644e-01
  1.7646419e-02
 -4.7561835e-02
 -5.0642565e-03
 -2.4865875e-02
  2.0303740e-01
  1.1840276e-01
 -1.2885672e-01
  1.5594429e-01
  2.0109326e-01
 -4.8309684e-02
 -8.3407424e-03
 -3.8238253e-02
  1.1590271e-01
  2.7793294e-01
  8.4469594e-02
 -8.5200936e-02
 -2.5268796e-01
 -8.1434995e-02
 -1.9483612e-01
  1.1303126e-01
 -2.1487452e-01
 -8.7959155e-02
 -9.5522255e-02
  1.9420149e-02
  6.9024101e-02
  1.5454797e-01
 -2.1168909e+00
 -6.2369823e-01
 -2.9596207e-01
 -1.7799380e+00
 -1.2482239e+00
  1.8069385e-01
 -4.3959242e-01
  9.3792212e-01
 -8.6324520e-02
  1.8378525e+00
  6.5048474e-01
  5.9208322e-01
 -1.9407432e+00
 -9.0668246e-02
  2.3193226e+00
 -1.1560851e-01
  4.0471885e-01
 -1.3359582e-01
 -1.6909862e-01
 -2.4278176e-01
 -1.4887054e-01
 -2.3694769e-03
  5.0738293e-01
 -4.7156796e-01
 -5.4839897e-01
  1.0968702e+00
 -1.2558866e-01
 -1.5673659e+00
 -1.3366087e-01
 -4.6778497e-01
  1.6046450e+00
 -9.2251092e-02
 -1.7675977e-02
  8.4094650e-01
  5.3898102e-01
 -2.0489502e+00
  5.8359849e-01
  1.5100642e+00
  4.5329490e-01
 -5.0183642e-01
 -1.7789453e+00
  3.0621657e+00
  1.5899278e+00
 -4.3092510e-01
  1.2358949e+00
  5.6781757e-01
 -3.0331409e+00
  7.0541068e-03
 -1.8406296e-02
 -4.1574132e-02
 -1.1254016e-01
 -3.9435895e-03
  6.6274144e-03
  1.3422768e+00
 -6.1507910e-02
  1.8032254e+00
  9.4066523e-02
 -4.8951951e-01
 -2.5843080e-02
 -1.1146891e-01
 -8.1105530e-02
 -1.8746737e-01
 -1.8157369e+00
  1.5236726e-01
  5.6281096e-01
 -3.7847094e-02
 -2.1367371e+00
  7.8663081e-02
  5.2945399e-01
 -5.0396609e-01
  1.8613870e+00
 -1.5251389e-01
  9.6531644e-02
 -1.3700149e-03
  8.1778869e-02
 -3.3152368e-02
 -1.2900554e-01
 -1.4268586e-01
  2.7009048e-02
 -7.2773606e-01
  3.7816722e-02
  1.0449996e-02
 -5.0950861e-01
 -9.5090902e-01
  1.0222368e-01
 -1.9223319e-01
  3.0608019e-01
 -7.4746090e-01
 -1.8685763e-01
  3.0256891e-01
 -4.5648733e-01
  6.5312207e-01
  2.7365696e-01
  3.5626385e-01
 -6.4829153e-01
  8.4284467e-01
  1.3204693e+00
  1.0534942e-02
  4.9385175e-01
  4.8183385e-01
  1.0761797e+00
 -3.1792685e-02
 -2.6533913e-02
  9.7076073e-03
  1.6075050e-02
 -1.1483009e-01
 -1.1915554e-02
 -8.1447566e-01
  1.9780631e-01
 -5.5652404e-01
 -1.6180350e-01
  1.8026121e+00
 -3.7524898e-02
 -2.2663711e-02
  2.4281834e-01
 -1.1102515e-01
  2.0295261e-01
 -3.7991740e-02
  5.9707619e-02
 -2.0407798e+00
 -1.3739581e-02
  1.1172474e-01
  6.8036243e-02
  8.0559027e-01
 -1.5014403e-02
 -3.1938627e-01
 -9.2115983e-02
  1.3548322e-02
  1.0031371e-01
 -4.3785997e-02
 -5.9676951e-01
 -7.2694355e-01
  3.6865753e-01
 -2.8709510e-01
 -9.7568542e-02
  1.3014834e-02
  2.2588072e-02
 -2.3053865e-01
  7.8177400e-02
 -1.0118843e+00
 -1.0026383e-01
 -4.5252767e-01
 -6.8530858e-02
 -1.8098280e-01
  8.9892119e-01
  6.0274594e-02
  5.1585853e-01
 -1.7568870e-02
 -1.9495483e-01
 -1.5285575e+00
  1.4654778e-01
 -7.2995992e-03
 -6.3341483e-04
  2.2032568e-01
 -9.0611182e-02
  7.0390210e-02
 -2.4851866e-02
  3.4951803e-01
  3.3024809e-01
 -7.7899270e-02
 -1.6547125e-02
  8.1283800e-02
 -7.3332019e-02
 -4.2151138e-01
 -5.3044107e-02
 -8.4503329e-01
  3.5690346e-01
 -1.2768219e+00
 -1.2929236e+00
  2.6446848e+00
 -8.6771595e-01
  1.0080024e+00
  8.5602647e-01
 -1.6138952e+00
  7.5862926e-01
 -1.4062476e-02
 -9.7310680e-01
 -7.0110548e-01
  1.2020178e+00
 -5.1004553e-01
 -5.6488931e-02
 -2.1262975e-01
  2.9030311e-01
 -2.9809469e-01
  2.9208097e-01
  1.1199225e-01
 -2.2885373e-01
  2.7553037e-01
  3.3789808e-03
  1.1778065e-01
 -4.1449953e-02
 -2.9143938e-01
  5.5078506e-02
 -3.0661741e-01
 -7.7153482e-03
 -1.9632544e-01
 -1.0097818e-02
 -6.2229009e-03
  1.2419836e-01
 -9.5444448e-02
  1.6597126e-02
 -9.5124088e-02
  5.4722991e-02
 -9.7525209e-02
  5.4102009e-03
 -8.5302040e-02
 -1.7168161e-01
  9.2216522e-02
 -3.8510498e-01
  1.1622156e-03
 -3.1124998e-03
 -6.0651675e-02
 -2.1864322e-01
 -3.4904501e-01
 -3.0031968e-03
 -2.5392562e-01
  4.0568471e-02
  1.0416890e-01
 -1.3929470e-01
 -3.7267905e-02
 -1.2664454e-01
 -3.2877600e-01
  1.4247394e-01
 -2.7756977e-01
 -5.7308480e-02
 -2.6297534e-01
 -7.6280899e-02
 -1.1090110e-01
  2.8574300e-01
  2.8400009e-02
  4.4828570e-01
  5.1478341e-02
 -3.3244558e-02
 -1.7130293e-01
 -1.1660139e-02
 -6.1220031e-02
  2.3602188e-01
 -1.1514430e-01
  2.6456913e-01
 -3.5429440e-02
  1.9470929e-01
  1.1366129e-01
 -1.8542400e-02
  2.9957885e-01
  8.5315391e-02
  7.7857174e-02
 -9.6861893e-01
  2.5593005e-02
 -1.1287055e+00
  4.1422290e-01
 -6.9958013e-01
  1.1219071e+00
  8.4974617e-01
 -4.5166534e-01
 -3.7690061e-01
  8.7561883e-02
  1.4021349e-01
 -8.1662172e-01
 -1.0931769e-01
  4.9437858e-02
  8.4955737e-02
  7.1239126e-01
  8.9526236e-02
  4.1466624e-02
  1.0768645e-01
  5.1943917e-02
  1.7343217e-01
  2.0547903e-01
  7.9272911e-02
  3.5653663e-01
 -1.3151079e-01
  1.4395432e-01
  5.2667435e-02
 -1.9038094e-03
  8.7468080e-02
  6.1663218e-02
  2.2436982e-02
  3.0662275e-03
 -8.1002764e-02
  3.3591011e-01
  8.8000625e-02
  3.0768675e-01
  1.4436841e-01
 -4.6064463e-02
  2.2891693e-02
  1.4839828e-01
  6.3351810e-01
  4.9543194e-02
 -2.2947171e-01
  2.4514429e-01
  2.2502861e-03
  4.0702233e-01
  4.6752515e-01
 -8.6320296e-02
 -4.1846377e-01
 -5.4184992e-02
 -3.5880134e-02
  1.2381718e-01
 -1.4064264e-01
 -4.3244313e-02
 -6.5273143e-02
  4.3659365e-01
  1.8955214e-02
  4.7746021e-01
  1.5587792e-01
  3.5641685e-02
 -2.5399965e-01
  3.0857071e-01
  5.6858782e-02
  2.1397094e-03
  6.8836436e-03
 -1.9882545e-01
  4.5818809e-02
  4.0758541e-01
  1.1267515e-02
  5.5935513e-02
 -2.0151298e-02
  8.4966592e-02
 -3.9364919e-02
  2.5625536e-01
 -2.7108915e-02
  1.3609789e-01
  4.6378538e-02
  6.4365759e-02
  7.7956937e-02
  1.0923700e-01
  2.3524034e-01
  9.5665179e-02
  4.0663528e-01
  2.8874612e-01
 -5.5159962e-01
  2.9309215e-02
 -1.6789796e+00
  1.0666293e+00
 -6.3923642e-02
 -1.9423432e+00
  2.4586630e-01
  3.2154253e-01
 -5.0926585e-02
 -3.1367594e-01
  8.8070565e-01
  3.2690430e-01
  1.2353194e+00
  8.4865585e-02
 -1.1657316e-02
 -3.0444091e-02
 -2.1631214e-01
  1.5509612e-03
 -2.8488055e-01
 -4.4038162e-02
  6.7119272e-03
  4.6191599e-02
  1.1583456e-01
  4.9584532e-01
  1.0530929e-01
  2.6930192e-01
 -3.5738684e-02
  4.3781027e-02
  2.8580764e-01
 -9.5094845e-02
 -1.0744702e-01
  2.7968977e-02
  9.8794806e-01
 -1.1396623e-01
  8.7163806e-02
  8.0096133e-02
  1.0262506e-01
  5.5128199e-01
  1.7797925e-02
 -1.0396498e-01
  5.6097335e-01
  2.1888754e-01
 -1.4343942e-02
  8.4146839e-01
  2.4238072e-01
  1.0370398e-01
  1.7344845e-02
  1.0544211e-01
 -9.8439805e-02
 -9.1031201e-02
  1.9607048e-01
  1.2458157e-01
  2.3565557e-02
  4.0625840e-02
 -8.8664591e-02
  4.2655075e-01
  4.9129464e-02
 -9.9995062e-03
 -4.4353954e-02
  5.0183110e-02
  1.8893078e-04
  8.5439555e-02
  1.1505081e-01
 -6.4739928e-02
  1.0752301e-01
  4.8511140e-02
 -1.0851348e-01
  7.6778933e-02
 -1.0317236e-01
  1.1191603e-02
  1.7607754e-02
 -8.2324371e-03
  1.5870151e-01
  2.5536945e-02
 -3.6697733e-01
  2.1568552e-02
 -3.3905333e-01
 -7.3805377e-02
 -4.0536888e-02
 -3.3756386e-02
 -7.4430588e-03
  2.7241249e-02
 -2.5222570e-01
  1.5632348e-01
 -7.5883374e-02
  2.1989666e-01
  1.1506514e-03
  2.6692444e-02
 -5.1220573e-02
 -5.1486682e-02
 -7.9589270e-02
  2.9205777e-02
  1.1645158e-02
  4.8982117e-02
 -1.7021722e-01
  1.3878101e-01
  5.0531381e-01
 -1.9417212e+00
  1.2854564e-01
 -6.3462794e-02
  7.0346151e-03
 -6.1324000e-01
  1.2130951e-01
  9.8516509e-02
  1.8432030e-02
 -6.5273590e-02
 -1.1327987e-01
 -1.6800140e-01
 -5.6181163e-02
  1.0365864e-02
  1.6433114e-01
  3.3870731e-02
 -5.4769725e-01
  5.6998044e-02
  3.0544860e-02
  2.6279667e-02
  2.3667334e-02
  3.1343110e-02
 -5.5730406e-02
 -2.1017165e-01
  4.3280676e-02
  3.4335963e-02
 -6.4616457e-02
  2.4726525e-02
 -3.5011473e-01
  5.5845357e-02
  9.3294993e-02
 -2.5421878e-02
 -1.4645360e-02
 -5.2625585e-02
 -2.6392981e-01
  1.2025593e-01
  4.4090990e-03
 -1.0752358e-02
 -2.0658258e-01
 -1.4167467e-01
 -1.1336333e-01
 -8.1367427e-03
 -3.3973339e-01
 -6.2711835e-02
  4.2253271e-02
  1.7895313e-01
 -1.7789361e-01
 -6.8569981e-02
  1.4481094e-01
 -7.1493037e-02
  7.6739535e-02
  1.3900255e-02
  5.3816393e-02
 -9.2276834e-02
  2.1748088e-01
  6.5457448e-02
  3.1927451e-02
  1.3125165e-01
 -2.3554815e-02
 -5.3636022e-02
  8.8661246e-02
  1.9314457e-02
  2.0795706e-01
  1.8372111e-01
  8.3347298e-02
 -1.9247125e-01
  8.6008185e-01
 -2.2323693e-01
  5.0556868e-01
 -7.5003766e-02
  3.1703418e-01
 -1.1937151e-01
  1.3811769e-02
 -3.6258528e-01
 -6.2848109e-01
 -4.1130304e-02
 -1.8474245e-02
  1.6832378e-03
  7.0490175e-01
 -5.1471416e-02
  1.4120090e-01
  8.5935719e-02
 -8.9642383e-02
  2.6963288e-02
 -1.0674874e-01
  1.7705862e-01
 -2.4323757e-03
 -6.6476214e-01
  1.7434275e-01
 -6.0496354e-01
 -8.1534959e-02
 -9.8423725e-01
  7.7636451e-02
  2.0265201e-01
  7.2717182e-02
  2.7519119e-01
 -1.7548518e-01
  5.3388590e-01
  3.0264214e-02
  5.0117236e-02
 -5.5449516e-02
 -3.8550217e-02
 -1.6474582e-01
  4.0700820e-01
  7.6278102e-01
  9.8765664e-02
  1.8735479e-01
  3.2680136e-01
  1.9392930e-02
  1.1318322e-01
  1.6727648e-04
  4.3945646e-01
  3.1909576e-01
 -1.2657221e-01
 -1.1007205e-02
  7.3286891e-01
  3.2355911e-01
  4.1838959e-02
  4.3028769e-01
  4.3501124e-01
 -6.5430417e-03
  1.1647532e-01
 -3.6002200e-02
  6.7073651e-02
 -2.0870221e-01
  1.5854907e-01
  5.2917384e-02
 -6.0020551e-02
  6.8282980e-01
  1.4595449e-03
 -6.3114353e-02
 -1.0417150e-01
 -4.2029656e-03
  4.1442119e-02
 -7.6670393e-02
  6.3341416e-02
 -7.3523998e-02
 -2.1555064e-02
 -4.7409862e-01
 -6.7561828e-02
 -1.6809785e-01
 -1.3137945e-02
 -3.4400214e-02
 -4.4495605e-02
 -1.2153330e-01
  2.5471878e-01
  1.9107837e-02
 -5.5407498e-02
  8.1711972e-01
 -3.1006688e-01
  2.5936869e-01
  3.2332215e-01
 -2.0156901e-02
  5.6218433e-01
  4.2121804e-01
  2.4249753e-01
  3.2639107e-01
 -4.2900333e-01
  9.7244032e-02
 -3.4673569e-01
  2.0331530e-01
 -2.0145611e-01
 -2.2849512e-01
 -2.1081161e-01
 -4.7305372e-01
 -6.9146730e-02
 -7.0172541e-02
 -1.2902650e-01
 -2.3244211e-02
 -8.8065749e-01
 -2.0396888e-01
  1.1899575e-01
  1.3833460e-01
  1.0938945e-01
 -1.2255965e+00
  6.7043960e-01
  1.1115981e-01
  1.0115539e+00
  1.7444868e-01
 -2.4834813e-01
 -5.3938347e-01
  6.5558225e-01
 -6.0086001e-02
  6.5489143e-02
 -4.0551100e-02
 -1.2194218e-01
  2.8714615e-01
 -7.7705838e-02
  4.6442804e-01
 -2.2469060e-02
  1.3697927e-01
 -8.1825018e-02
  9.0620506e-01
  1.8485941e-01
  1.1258117e-01
  6.9223911e-02
 -2.5198432e-02
 -2.5360620e-02
 -5.5888630e-02
 -4.0759575e-02
  7.6195049e-01
 -2.2095573e-01
  1.3562140e-01
  5.3761350e-03
 -2.6687551e-01
 -1.8926513e-01
 -3.0582141e-02
  6.7354262e-02
  1.0262961e-02
 -7.8668125e-02
  5.9860396e-01
 -5.5111915e-02
  2.3918818e-01
 -2.4626315e-02
 -1.3430746e-01
  1.2030948e-02
 -1.2145109e-02
 -7.0582926e-02
  5.9854630e-03
 -5.7117548e-04
  3.1976265e-01
  2.1001476e-01
 -2.0690209e-01
 -4.5611021e-01
 -2.0572592e-01
  2.2995200e-02
 -2.7702478e-01
 -1.0986563e-02
  1.7545719e-01
 -1.3465844e-01
 -1.3800013e-01
  9.8560083e-01
 -5.7192093e-01
  1.5656896e+00
 -2.6323576e-02
 -5.4298800e-01
 -7.6399434e-01
 -1.6415147e-01
 -9.7348951e-02
 -2.9521072e-02
 -1.4730024e+00
 -8.9814836e-01
  5.3601837e-01
  2.4011242e-01
 -6.5665376e-01
  9.8057643e-02
 -2.7578438e-02
 -8.6417496e-03
 -4.6866513e-03
  3.1826130e-01
  2.4800105e-01
  1.6125445e-01
  4.9713424e-01
  4.1263935e-01
 -2.7623266e-01
  5.0263289e-02
 -6.7149997e-02
  1.3025726e+00
  1.9451970e-02
 -9.6581364e-01
 -4.2452267e-01
  1.9403325e-01
  1.0106277e-01
 -1.4335209e-01
 -1.7757204e-01
  1.3660756e-03
  5.2365560e-02
  1.3318436e+00
  5.2479362e-01
  5.8797210e-02
 -4.6302119e-01
 -3.8672295e-01
 -1.1491433e-01
  3.5462174e-01
 -2.0810566e+00
 -3.4969670e-01
 -2.1413532e-01
 -4.9450189e-01
  6.2176508e-01
 -7.0215493e-01
  2.1309674e-02
  7.8126901e-01
  7.3025621e-02
  2.5332218e-01
  3.5767141e-01
 -4.4736513e-01
  1.6075250e+00
 -4.7334760e-02
  7.3216252e-02
  6.0119981e-01
 -2.3385715e-02
  1.4657629e-01
  7.5840175e-02
  2.6549491e-01
  5.0629002e-01
 -3.8721021e-02
 -3.1967404e-01
  2.9396130e-02
  1.4929079e-01
 -1.9602819e-01
  4.1638702e-02
  1.4247216e-01
  1.4041099e-01
  5.6532547e-02
 -1.5595910e-01
  1.3979003e-01
  3.4692951e-02
  7.4847117e-03
  3.7922567e-01
 -2.3622086e-02
  6.4110942e-03
 -2.4216488e-01
 -3.0502260e-01
 -8.4137976e-01
  8.9009416e-01
  1.0276833e+00
 -1.9094627e+00
 -1.3953307e+00
 -7.3132920e-01
 -1.3843801e+00
  4.2437446e-01
  1.2995307e-01
  6.0200107e-01
  2.8897145e-01
 -1.6831588e+00
 -1.0523633e+00
 -5.9367096e-01
 -2.6093423e-01
 -4.1119793e-01
  1.3216531e-01
  4.7667900e-01
 -1.6723756e-01
 -6.3688084e-03
 -2.4168299e-01
  1.1547947e-01
  4.1428529e-02
 -1.2269995e-01
 -5.1527864e-01
 -1.1956574e+00
  8.8015579e-02
 -1.1743156e-01
  2.6556408e-01
 -6.3426815e-02
 -8.1762463e-02
 -1.8733162e-02
  6.7705691e-01
  6.6375864e-01
 -1.4144944e+00
 -5.7886962e-02
  7.5799870e-01
  2.0728239e-01
  1.4003183e-01
 -8.1198740e-01
 -8.9710303e-02
 -3.2470819e-01
 -5.1559031e-01
 -6.5101695e-01
  1.2929162e-01
  8.2459576e-02
  1.2477946e-01
 -3.7935983e-02
 -9.8913431e-02
 -2.3965283e-01
  2.6842667e-02
  2.8387538e-01
  4.2845854e-01
  3.8090724e-01
 -4.5364571e-01
  1.2910093e+00
  7.6375850e-02
  7.0412420e-02
  5.8531237e-01
 -8.7022044e-02
  5.2452236e-03
  3.3290204e-02
  4.7703058e-01
  2.6744050e-01
  4.2399660e-01
 -1.0046370e+00
  3.4748366e-01
 -1.6147169e-01
  2.2740768e-02
  4.8847750e-02
  7.2180651e-02
 -1.1184084e-01
 -1.5038124e-01
  6.1717488e-02
 -1.4337842e-01
 -1.7592484e-02
  2.6048231e-01
  1.7481673e-01
  7.0043348e-02
  1.1977148e-01
  2.8654881e-02
 -9.1965143e-03
 -1.1563050e-02
  6.8970239e-03
 -4.3498813e-03
 -1.7374417e-01
  9.5991388e-02
 -1.6969323e-01
  6.5324068e-02
  4.3251522e-02
 -7.0386864e-02
  1.6403343e-01
 -2.8986579e-01
  1.1720482e-01
 -2.8561035e-01
  1.2112129e-01
 -3.7522051e-02
 -3.8451135e-02
  9.4617136e-02
  8.0444679e-02
  3.0022281e-01
 -6.9271043e-02
 -1.3104226e-01
  2.9748045e-02
  3.3457857e-01
  3.2292593e-01
  3.4543827e-02
 -1.3968565e-01
 -1.2695512e-01
 -3.6023945e-02
  2.7593525e-02
 -5.5519428e-02
  5.0619926e-02
 -1.5891697e-01
  3.6197405e-02
 -8.8529512e-03
 -4.2205632e-01
  2.7360681e-01
  1.0677426e-01
 -2.6308203e-02
 -2.4270280e-03
 -1.1829764e-01
 -1.1683331e-01
 -3.4472506e-02
 -9.1439545e-02
  7.3526092e-02
 -2.5461186e-02
 -9.8960744e-03
  2.4719785e-01
  2.0630001e-01
  3.5415977e-02
 -4.3686941e-02
 -1.0934703e-01
  1.6424011e-01
  2.6781192e-01
 -6.8445869e-02
  8.0128148e-02
  1.5613516e-01
  1.2678900e-02
  3.4048352e-01
  1.8582816e-01
 -4.6603358e-01
  1.0319535e-01
 -9.8340467e-02
 -1.8901072e-02
 -2.3980059e-01
  1.0834030e-02
 -5.5121899e-02
  2.6871394e-02
  3.1061491e-02
 -1.2571391e-01
  7.1837857e-02
 -1.8132378e-01
 -3.6835901e-02
 -3.2741517e-01
  1.9567801e-02
  9.4420008e-02
 -7.0314579e-02
 -1.6063192e-01
 -6.4642265e-02
 -6.0740601e-02
  1.4377683e-03
  6.4528547e-02
  5.9777045e-01
 -6.7028761e-02
  6.3328439e-01
 -3.0914124e-02
 -8.8075554e-01
  2.4269825e-01
 -1.3013285e-01
 -9.4731140e-01
  1.2247869e+00
 -5.2254391e-01
  5.9691370e-01
 -4.9641915e-02
  8.9242899e-01
  4.8158771e-01
  1.5079566e+00
 -1.3488926e-01
 -4.7936422e-01
 -1.3034019e-01
  5.6455787e-02
  1.1571708e-01
 -1.1819138e-01
 -4.1682881e-01
  6.5580152e-02
  1.6239135e-01
 -7.7911121e-01
 -2.2809757e-02
 -1.6364875e+00
 -1.3834634e-03
 -3.7184406e-02
 -2.2346152e-01
 -6.9521284e-01
 -1.3142724e-01
 -5.5308729e-01
  1.0288787e-01
 -1.1706918e-01
 -7.2981171e-02
  5.5733867e-02
 -6.0169655e-01
  7.6319158e-01
  1.3819174e-01
 -2.4858667e-02
 -4.7365564e-01
 -6.7445025e-02
 -8.5912931e-01
  2.2465959e-02
 -5.6070663e-02
 -2.9231322e-01
  1.6286798e-02
 -6.7313635e-01
  1.0785436e-01
  2.3993623e-01
  2.5478998e-01
 -1.1558022e-01
 -5.4188773e-02
 -1.1191048e-01
 -8.7472545e-03
 -4.4288564e-02
 -1.0346045e-01
 -2.3871623e-01
 -1.8513796e-01
  1.1451860e-01
  1.3301711e-01
 -4.0254038e-02
 -1.2978967e-02
 -2.4938930e-02
  1.7821305e-01
  8.2831401e-01
 -1.1401761e-01
 -1.3042043e-01
 -7.1525902e-02
  4.0522814e-02
  1.7366925e-02
  4.6499379e-02
  2.1733651e-01
  7.7581979e-02
  1.3185526e-01
 -3.1164959e-01
 -1.9651863e-01
 -1.9211601e-01
 -2.9156351e-02
 -2.1761139e-01
 -7.1917981e-02
  1.3802603e-01
  3.5035306e-01
  5.1681131e-01
 -3.9119306e-01
  3.8754251e-02
  5.8890015e-01
 -3.3011729e-01
  3.4131464e-01
 -2.3983459e-01
 -3.2086161e-01
  4.4081286e-01
  2.9473099e-01
  1.0495204e+00
 -1.0443321e+00
  1.5854642e-01
  4.4690049e-01
  2.5296319e-02
 -1.7834859e-01
 -4.1181505e-02
 -3.5137978e-01
 -4.4876254e-01
 -2.7706936e-01
 -3.7005585e-01
 -3.2880500e-01
 -1.0719194e-01
 -5.6448422e-02
 -8.0467835e-02
  1.1964262e+00
  2.6273828e-02
  8.7508656e-02
  4.7006848e-01
 -3.9176799e-02
  6.0800403e-01
 -2.4993056e-01
 -8.2720831e-02
  1.0762299e-01
  2.7489665e-01
  1.5878798e-01
  9.4927534e-02
 -1.2434065e-01
 -1.1856835e-01
 -4.9933544e-01
 -2.0746041e-02
 -7.8483457e-03
 -1.5115758e-02
  7.2915992e-03
  4.4706908e-01
 -1.0084458e-01
  5.7468021e-01
  4.5594357e-02
 -5.7153600e-01
 -4.5396593e-01
 -1.1907795e-02
  4.3910015e-02
  1.0699489e-01
  1.2797457e-01
 -2.0230179e-01
  3.3242786e-01
  1.7898721e-01
  6.4193940e-01
 -6.8318516e-02
  2.6976800e-01
  1.2374202e-02
 -3.5118175e-01
 -5.0969982e-01
  6.6520661e-01
  4.3425888e-01
  8.4845491e-02
 -1.2359889e-01
  3.8075927e-01
  6.3807949e-02
 -6.1372023e-02
  4.3657575e-02
  3.1153819e-01
 -1.6236535e-01
  1.4877846e-02
 -4.9356021e-02
 -6.2524810e-02
 -9.0331674e-02
 -1.1491570e-01
  4.1017249e-02
 -2.0228168e-01
  1.2162795e+00
  2.3876226e-01
 -4.2602578e-01
 -6.7220348e-01
 -1.3167301e+00
 -8.5302293e-03
 -2.8067452e-03
 -4.4263697e-01
  1.7727931e+00
  1.1344159e+00
 -3.0169395e-01
  5.3618222e-02
  2.4031703e-01
 -4.6536967e-02
  1.4767101e-01
 -1.3158964e+00
  1.1238883e-01
 -3.9742585e-02
 -2.6963933e-03
  3.5036650e-01
  7.1013090e-03
  8.5272920e-01
 -2.4908306e-01
 -1.5413505e-03
  1.5617271e-01
 -1.7543651e-01
 -1.5043324e-01
 -1.4289320e-01
  5.3453630e-01
 -2.0271637e-02
  1.1491898e+00
 -3.9904404e-02
  4.1554266e-01
 -3.3949205e-01
  8.5857563e-02
  2.7235040e-02
  8.9035518e-02
  7.9134502e-02
 -9.1073066e-01
  4.6832994e-02
 -3.2124564e-01
  1.4372466e+00
 -4.8931222e-02
  1.8931800e-01
  1.1836066e-01
 -3.6632922e-01
  3.0639417e-02
  3.6587477e-02
  6.2928639e-02
  2.0611968e-02
 -3.5919493e-01
  9.4862260e-02
  7.0355684e-01
 -5.4582261e-02
  3.0681315e-01
 -3.9703277e-01
  1.3337290e-01
 -4.5508906e-02
 -2.9009040e-02
  2.4515491e-02
  3.3425108e-02
  9.2982501e-02
  6.6743754e-02
  4.7802269e-02
  2.2287087e-01
 -3.5764236e-02
 -1.1476784e-01
  3.1692434e-02
 -1.5768085e-01
 -8.5311998e-03
 -1.0706278e-02
 -1.7161347e-01
 -7.1837446e-03
 -1.9264618e-02
 -1.2133500e-01
 -1.9586737e-01
 -4.3666118e-01
 -1.7199923e-01
 -9.7348742e-02
 -2.0851098e-02
 -8.5933588e-02
 -2.7685942e-02
 -1.3854382e+00
  3.0344519e-01
 -1.7117006e-01
 -8.8996381e-02
  9.5038325e-01
 -1.2169379e+00
 -1.2199937e-01
 -4.4929552e-01
 -1.2819912e+00
  7.4308413e-01
 -1.9911791e-01
  1.5111570e-01
 -2.1080577e-01
 -1.6864821e-01
 -8.5416299e-01
  5.5827427e-01
  2.6304573e-01
  1.3368331e-01
  6.7724442e-01
 -6.1780974e-02
 -4.2643271e-02
 -2.4006014e-01
 -9.1058177e-01
 -7.2625591e-03
  6.8277672e-02
 -9.3795406e-03
 -2.3574126e+00
 -4.9207572e-02
  8.1563689e-02
 -3.3878285e-01
 -1.9380296e-02
  6.3172740e-01
  4.7375706e-01
 -1.1101916e+00
 -8.5506715e-02
  2.3596690e+00
 -1.2296736e-01
  5.6226039e-01
  3.4963053e-01
  2.6044784e+00
  2.7075527e+00
 -7.0747846e-01
 -9.5943850e-01
  1.9427726e+00
 -5.6336927e-01
 -1.8739327e+00
  3.3458200e-01
  2.3191098e-02
 -2.1137731e-02
  1.7283928e-01
  1.2340128e+00
  1.4082448e+00
 -6.4328420e-01
 -1.7345778e+00
  1.9700393e-01
 -1.3189621e+00
 -4.5142868e-01
  1.0521084e-01
  3.1409478e-01
 -4.8001310e-01
  4.5697051e-01
 -2.4383515e-01
  6.1989129e-01
 -1.7809455e+00
 -3.1944275e-02
 -7.1112680e-01
  8.2814527e-01
 -1.2041600e+00
  6.6076809e-01
  1.4571713e-01
 -8.8295668e-01
  7.3278241e-02
  3.1928323e-02
 -1.8729050e-01
 -1.0410095e-01
 -7.7861398e-02
  7.7148139e-02
 -1.6186792e-02
 -2.4260868e-01
  3.0046299e-02
 -1.0503593e-01
 -2.2086306e-02
  1.6287948e+00
  1.9773749e+00
 -9.2290953e-02
  1.3652858e+00
 -1.9542730e-01
 -6.0901934e-01
 -1.7758596e-01
 -1.6484404e-01
  1.0768373e+00
 -1.0327184e+00
 -6.9095409e-01
 -5.6842494e-01
 -2.6989400e-01
 -7.0845246e-01
 -4.7474784e-01
  4.5243022e-01
  4.3188474e-01
  1.3400441e+00
 -4.0302882e-01
  5.4712039e-01
  1.3492994e-01
 -2.4069034e-01
 -6.9652367e-01
  5.6186920e-01
 -4.6589047e-01
 -9.3557224e-02
  1.4827217e+00
 -1.8106805e+00
 -5.3887159e-01
 -9.7986573e-01
  2.2423978e+00
  4.1724330e-01
 -9.1722721e-01
  1.3225152e-01
  7.1883261e-01
 -1.5050301e-01
  7.4425149e-01
 -8.1328136e-01
 -3.1340969e+00
  3.1516892e-01
  3.8732913e-01
 -8.8005716e-01
  1.8407094e-01
  1.1930932e+00
 -5.9810257e-01
  8.9734653e-03
  1.3834076e+00
  1.4816968e-01
 -6.0202444e-01
  8.0827159e-01
 -1.0795341e+00
 -6.9121408e-01
  1.9715514e+00
 -3.2362498e-02
 -4.3083534e-01
 -1.4239857e+00
 -3.2275519e-01
  1.3092946e+00
  3.1198210e-01
  1.1865026e+00
  1.4607623e+00
  2.1978690e-01
 -2.1543990e-01
  5.8225495e-01
 -3.6521021e-01
  1.6428776e-01
  8.6187190e-01
 -2.2155173e+00
 -2.0310044e-01
  4.5233257e-03
 -1.4841026e+00
 -6.0116068e-02
 -2.0273838e-02
  5.5235244e-02
  5.4182667e-01
 -7.0040233e-02
 -2.2330588e-01
  3.3028540e-01
  6.8338722e-02
  2.0532005e-02
 -2.7027342e-01
  1.8615665e-01
 -1.2467377e+00
  6.3561630e-01
  3.9015498e-02
 -1.8493688e-01
 -2.4456158e-01
  3.5876770e-02
 -5.7345563e-01
  8.3148241e-01
  1.2434622e+00
 -3.3764744e-01
  1.0661973e+00
  3.2012823e-01
 -4.6360675e-01
 -3.1538391e-01
 -8.1211877e-01
 -2.5511220e-01
 -9.1678642e-02
  5.9006059e-01
  7.8450516e-02
 -1.4994200e-01
 -1.1119924e-01
  5.1339781e-01
  9.1423994e-01
  2.3451095e-02
 -1.4304467e-01
 -4.3490785e-01
  6.7765713e-01
 -1.2419996e-01
  3.7357114e-02
 -5.1959068e-02
 -6.5885824e-01
 -1.2564987e-01
  5.4178376e-02
  2.1145710e-01
 -1.3412867e-02
 -5.5808932e-01
  4.3224301e-02
 -1.6033165e-01
 -1.8192449e-01
  8.0957934e-02
  2.0920725e-01
 -9.4594240e-01
 -1.3076979e-02
 -7.5011778e-01
 -6.9398946e-01
  3.7893061e-02
 -7.0663136e-01
  4.3468001e-01
 -1.0289506e+00
 -2.8455822e-02
 -2.8253329e-01
  3.2177228e-02
 -4.7984729e-03
 -1.1561660e-02
  9.9283017e-02
  2.6456038e-02
  3.5162115e-01
 -6.2289141e-02
  1.5828368e-01
  2.6761103e-01
 -1.3802631e-01
 -2.2514155e-02
  4.5314960e-02
  8.5270815e-02
 -1.2767023e-01
  2.0454969e+00
 -1.6951595e-01
 -9.0332083e-02
 -1.0069025e-01
  1.0228374e-01
  5.6997858e-02
 -9.2265330e-02
 -1.1803789e-01
 -1.6637978e-01
 -1.3198149e-01
  4.6358857e-02
  4.4924445e-03
  1.1724317e+00
 -3.1820420e-02
 -5.5608362e-02
 -1.9487621e-01
  5.6912772e-02
 -4.6529090e-01
 -1.2568771e+00
 -4.3905684e-01
 -5.6464589e-01
  3.3972970e-01
  1.8722340e-01
 -2.1072009e+00
  5.8019221e-01
 -3.9914903e-01
  3.8391051e-01
  2.7230952e+00
 -5.2458239e-01
 -7.3282927e-02
  1.5608990e-01
 -4.7899053e-01
 -2.0324607e+00
 -3.5348338e-01
  4.3303934e-01
  2.2056159e-02
 -7.3694438e-02
 -8.4504597e-02
  1.6978718e-01
 -1.5982208e-01
 -7.0820212e-02
 -2.3742478e-01
 -3.8117763e-02
  1.6425204e-02
  9.6493214e-02
 -3.5426561e-02
  4.1582501e-01
  2.1153004e-01
 -6.4930968e-02
  6.0690439e-01
  4.0863293e-01
  1.8454343e-01
  4.3873750e-02
  6.5466121e-02
  1.3052316e-01
 -1.5112558e-01
  1.8842977e-02
 -1.0096378e-01
 -1.5289558e-01
 -1.8208908e-01
  1.4681727e-01
 -7.4056927e-03
  4.1274711e-02
 -1.3103603e-01
 -1.8349943e-01
  1.3035192e-01
  6.0455358e-01
  4.8772490e-01
  1.3973308e+00
 -4.8836619e-02
  3.4400761e-02
  9.6993275e-02
  7.9850620e-01
  2.6162925e-01
 -8.8137321e-02
  1.2229226e-01
  7.5182363e-02
  4.0050201e-02
 -1.0164471e-01
 -1.8546480e-01
 -3.1241953e-01
 -1.7969467e-01
  5.1817898e-02
  2.4941947e-01
 -1.4021131e-01
 -1.5723167e-02
 -8.5100224e-03
  7.0070825e-03
 -1.4287247e-01
  9.2533007e-02
  1.7450626e-01
 -9.2262262e-03
  2.3288544e-02
  2.8065157e-01
  7.2392546e-02
 -7.1090490e-02
 -1.6569021e-01
 -1.0725245e-02
  3.2052223e-02
  9.9013788e-01
  3.1623918e-01
  8.5300922e-02
  5.2487150e-02
 -8.0061954e-01
  1.3603429e-01
 -1.5775070e+00
  6.0638314e-01
  1.7386351e-02
  5.3547811e-02
  1.8820360e-01
 -4.4830775e-01
 -3.5834467e-01
  5.4718353e-02
 -2.7472958e-01
 -9.3727022e-01
  1.1203662e+00
  1.4820367e+00
  5.7019144e-02
  8.2079220e-01
 -1.3263783e-01
 -1.0050030e+00
  1.2559673e+00
 -3.1383842e-02
  1.7434956e-01
 -7.4703537e-02
 -2.9240480e-01
  8.1818521e-01
  5.8386648e-01
 -1.1999185e+00
  2.2743444e+00
 -1.9803077e+00
 -6.7921925e-01
  3.1365183e-01
  3.1330308e-01
 -3.0921665e-01
 -7.1692824e-01
  2.8375700e-01
 -1.5501673e+00
 -2.6633244e+00
  1.6437759e-01
 -3.3108383e-01
 -3.6557460e+00
  6.5168694e-02
 -2.1100958e-01
 -1.2199312e-01
  4.0692978e-02
  2.2060290e-01
 -4.4796902e-01
 -2.4363540e-01
  6.6786957e-01
  1.2191904e+00
 -1.4424673e-01
 -3.4182858e-01
 -1.9735821e-01
 -1.8306308e+00
  1.7811943e+00
  3.8427966e+00
  4.7746092e-02
 -1.1760150e+00
  4.2383585e-02
 -5.8726799e-02
  7.7088133e-02
  4.7564846e-02
  1.1836813e-01
  3.6000270e-02
  1.4848484e-01
 -2.9231533e-01
  5.9757477e-01
 -5.3792913e-03
  1.8239837e-02
  6.9471419e-01
  2.1670739e-01
  9.0621300e-02
  1.6855864e-01
  7.9687640e-02
 -2.8178868e-01
  3.5403329e-01
 -1.0664253e-02
  8.2455659e-01
  4.9427275e-02
  2.5869790e-01
  2.3121651e-01
 -5.1418000e-01
 -2.8617708e-02
  1.6890548e-02
 -8.2863367e-01
 -5.4612088e-01
  1.1650019e-01
 -1.9965278e-01
  2.3355040e-01
  9.2731345e-01
 -8.0485992e-02
 -7.5498722e-02
 -2.6933634e-01
  1.7550448e-02
  5.2798444e-01
  5.1657772e-01
 -2.9554212e-01
 -3.1925982e-01
  2.0432604e-02
  2.5276218e-02
  2.1256283e-01
 -1.2913056e-01
 -6.1995253e-02
 -3.0669181e-02
  3.9326169e-02
  1.3180192e-02
  4.5321506e-01
  6.9786437e-02
 -9.2131838e-02
  1.1430425e-01
  1.0539748e-03
 -8.0889195e-02
  2.7878547e-01
  6.9376928e-01
 -2.0661367e-01
  2.6491436e-01
 -2.5061586e-01
 -1.9624515e-01
  5.6823649e+00
 -1.1944562e+00
  2.0009412e-01
 -8.5095125e-01
  2.9831031e-01
  1.0744259e+00
 -2.3657777e+00
 -6.3347489e-01
 -7.8711200e-01
 -1.4280297e-01
 -1.4049139e+00
  2.8157315e-01
 -7.4600077e-01
 -9.6705973e-01
 -4.1042599e-01
  6.5306984e-02
 -1.2709551e-01
 -9.9769270e-01
 -8.7107664e-01
 -1.4720986e+00
  1.2436472e-01
 -1.6557002e-02
  6.9671929e-01
  2.0862591e-01
  1.7291684e+00
 -1.3958104e+00
  8.3333874e-01
  9.0600693e-01
 -8.0372173e-01
 -5.7680064e-01
  7.5174910e-01
 -2.3625493e+00
 -2.7758953e-01
 -2.1233637e+00
 -2.9490135e+00
 -1.3017479e-01
  7.9634058e-01
 -7.6732755e-02
 -4.2974882e-02
  6.7715734e-02
  8.1700377e-02
  1.3048273e-01
  1.4382359e+00
  3.0664098e-02
 -4.7873890e-01
 -5.9287481e-02
  6.5395319e-01
  2.3316628e-01
  3.3556330e+00
 -9.8482236e-02
  9.8038569e-02
 -2.3074584e-01
  1.3109338e-01
  1.6195786e-01
  9.8484829e-02
  2.7514456e-02
 -1.0933311e-01
 -5.8943659e-01
 -6.1565995e-02
 -1.7705005e-01
  1.3522556e-01
  6.4624846e-02
  4.4890466e-01
 -1.3814348e-01
  6.7872186e-03
 -1.1933192e+00
  1.6604731e+00
  2.1607590e+00
 -2.3535952e-01
  6.5914863e-01
  9.9184942e-01
  1.7203943e+00
  3.2670884e+00
 -2.1213460e+00
 -5.6248987e-01
 -1.1515656e-02
 -1.0849981e+00
 -3.7420925e-01
  6.1231655e-01
 -6.3272512e-01
  1.3450983e-01
 -7.4187413e-02
 -6.3418931e-01
 -2.5378713e-01
 -7.4711794e-01
 -3.4796971e-01
  7.7002782e-01
 -2.7378350e-01
  2.8938785e-01
  8.1753857e-02
  1.8140333e-02
  1.8241008e-01
  7.0007008e-01
  1.0181162e+00
  8.5869724e-01
  3.4214512e-01
 -2.3645100e-01
 -4.7925678e-01
 -6.5705806e-01
 -5.9667641e-01
  2.7070466e-01
 -2.8064051e+00
 -3.7669016e-03
 -1.3629091e-01
 -2.6012638e+00
  3.1479695e+00
 -6.4904135e-01
  4.0112692e-01
 -9.4675070e-01
  6.1871326e-01
  9.3846035e-01
  1.5303637e+00
  9.7827896e-02
 -2.3846531e+00
  6.5111971e-01
  9.8106778e-01
 -3.2804793e-01
  6.3445663e-01
  1.7345244e+00
  3.5158771e-01
 -1.7371287e+00
  2.8473422e-01
  5.2327925e-01
 -2.5561291e-01
  3.0035502e-01
  1.1744105e-01
 -1.6769412e+00
 -7.8024787e-01
 -1.1367599e+00
 -7.0828110e-01
  4.4466552e-01
 -3.3257141e+00
 -5.5850691e-01
  2.6761045e+00
  1.5603761e-01
  1.1667658e+00
 -5.4475522e-01
 -4.8826456e-01
 -5.4671097e-01
  1.0922211e+00
 -1.0691038e+00
  4.5091921e-01
 -1.1890209e+00
 -4.1105551e-01
 -1.1097212e+00
 -6.3906437e-01
  4.5412991e-02
 -3.7221611e-02
 -1.6917291e-01
 -2.9271680e-01
 -1.7468944e+00
  1.3525791e-01
  1.6622277e+00
 -1.5478036e-01
  6.9417119e-01
 -2.7485058e-01
  2.5592928e+00
  2.4427108e-01
  4.9359423e-01
 -8.7173276e-02
 -2.3415687e-02
  2.0026705e-01
 -5.2067578e-02
  5.9745741e-01
  2.0410070e-01
 -7.9657204e-02
  2.4397899e-01
 -1.5352464e-01
  1.2456614e+00
  3.5504028e-01
 -1.1423866e-01
 -9.4431385e-02
 -1.8239196e-01
  6.7355227e-01
  2.8127810e-01
  1.6560552e+00
 -6.1872971e-01
  4.8501737e-02
  1.5486037e+00
  1.1605134e+00
  3.6912063e-01
  8.1883900e-02
 -8.4628475e-01
 -5.8073908e-01
  3.2039836e-02
 -3.1578541e-01
  1.3490119e+00
 -3.2630903e-01
 -1.2741337e+00
 -9.4933145e-02
 -3.7369293e-01
 -4.5580649e-01
  3.0267239e-01
 -1.1842941e-01
 -1.3042592e+00
  9.5585890e-02
  4.4994825e-01
 -1.0904735e+00
 -1.8079058e+00
  2.0766106e-02
  4.4799045e-01
  7.0444100e-02
  2.8273811e+00
  1.2356013e+00
  2.9624228e+00
 -5.0912267e-01
 -1.6286530e+00
 -1.9492097e+00
  3.1141222e-01
  7.6455390e-01
 -1.2538515e+00
 -1.6855847e+00
 -2.0050471e+00
 -4.7732596e+00
 -1.1580397e+00
  2.8728031e-02
  1.8571045e+00
  3.1314081e-01
 -8.4554535e-01
 -3.2602125e-01
 -4.8186976e-01
  1.3295194e+00
 -2.1343026e+00
  5.1220793e-01
  1.4618357e+00
  6.3347626e-01
  5.1259708e-02
  3.5069165e-01
 -3.8238297e+00
  1.0477251e-01
  9.1006182e-02
  8.4179066e-02
  1.0671426e+00
  4.3167241e-02
  2.5902095e-01
 -1.8376511e+00
 -1.2689559e+00
 -8.6815202e-01
 -1.9683812e+00
 -3.0401549e-01
  9.5831484e-02
 -1.2290635e-02
 -1.6903413e-02
  7.1162975e-01
  2.3178244e-01
 -1.3621835e+00
 -3.0791945e+00
  3.2287627e-01
  2.4450850e+00
 -1.1426036e-01
  1.6085000e+00
  5.6326431e-01
  2.9589984e+00
  8.0731976e-01
 -3.9108500e-01
 -2.3194201e-02
 -6.8074036e-01
  7.9996109e-02
  7.0603162e-01
  1.2128869e-01
  5.4234736e-02
  5.7321358e-01
  6.9280036e-02
 -9.8163962e-02
 -2.2421894e+00
  3.6274371e-01
  1.6406436e-01
  2.7557689e-01
 -3.9704490e-01
  8.0875903e-02
 -8.6981988e-01
  4.6057627e-01
  5.3826552e-02
 -4.7231546e-01
 -1.7819734e+00
 -1.3829762e-01
 -1.2939173e+00
  2.9511374e-01
 -1.0590677e-01
  9.1387492e-01
  3.1922117e-01
  3.3975933e+00
 -8.8287109e-01
 -2.2581556e+00
 -5.7013917e-01
 -1.2904373e+00
  2.5843138e-01
 -3.8443449e+00
 -1.3780785e+00
  1.9426986e+00
  7.3543209e-01
  8.0406255e-01
  1.4966685e+00
  8.1777483e-01
  8.5607618e-01
  1.0278540e+00
  4.0304878e-01
  5.1512712e-01
  1.2708490e+00
  8.2748555e-02
 -8.3533299e-01
  1.3498689e-01
 -8.2861856e-02
 -2.4021270e+00
  4.8541042e-01
 -3.3241965e-02
  2.6388860e-01
  1.2619304e-02
  2.4656458e-01
 -6.8445659e-01
 -2.1128662e+00
 -4.8773203e-02
  2.0509428e-01
 -6.9492549e-01
 -3.0670885e-02
  1.0158386e+00
 -4.7137443e-02
  1.1324005e+00
 -3.2638104e+00
 -2.2392583e+00
 -1.7121940e+00
  6.7422193e-01
  4.2809919e-01
 -1.9704329e+00
 -5.0845724e-01
  6.9642141e-02
 -5.7544775e-02
  9.6331006e-01
  1.9300116e-02
  4.4071904e-01
 -9.3249828e-01
 -3.8772918e-02
  6.6373754e-01
  2.1977091e-01
  5.3662442e-02
 -1.2135084e-03
 -1.8964680e-01
 -6.0401209e-02
 -3.3126805e-02
 -6.9447470e-01
 -1.0842369e-01
  1.8599215e-01
  1.2197752e+00
 -1.0795946e-01
  3.7060775e-02
  2.2153994e-02
  1.4754076e+00
  4.9167726e-02
 -2.4008393e-01
 -6.0277827e-02
  1.0282782e-01
 -1.2465122e-02
 -2.2170511e-01
  5.6992203e-01
  1.2317402e-02
 -3.9508939e-01
 -7.2541088e-01
 -2.4374673e+00
  8.9355171e-02
 -1.9380791e+00
  1.1518850e+00
 -4.3260287e-02
 -8.1274711e-02
  2.8816478e-02
  3.8104647e-01
 -9.0984985e-02
  1.6588884e-03
  3.9626203e-02
 -1.1503512e-01
  1.5417686e-01
 -6.3764930e-02
  9.0152271e-02
  1.4555456e-01
 -4.8043355e-02
 -5.2150055e-03
 -5.4753013e-02
  1.7021789e-01
 -1.5533330e-02
  3.1266028e-01
 -4.2077613e-01
  2.0751208e-01
 -6.2689245e-01
 -1.3960804e-01
 -6.5248102e-02
 -4.0999749e-01
  1.2062038e-01
  2.0714231e-02
  8.1713751e-02
  2.2615920e-01
  2.2444332e-01
  9.2343807e-02
  3.9804615e-02
  2.8498021e-01
  1.3909375e-02
 -4.4901207e-02
  1.2634300e+00
 -8.1973577e-01
  6.1813634e-02
  7.4431509e-02
 -9.9724326e-03
 -7.9519130e-02
 -8.2960241e-03
  3.1843689e-01
  1.0111775e-01
  4.0351161e-01
  1.2158549e-01
 -6.5141463e-01
  5.3034451e-02
  2.1159244e+00
  1.8093453e-01
 -4.1527200e-02
 -1.7097548e-01
 -2.6793320e-02
 -3.4736285e-03
  6.3755907e-02
  1.3230407e-01
 -7.9036035e-02
  2.6589066e-01
 -5.4859504e-02
 -3.7477946e-01
  1.3758793e-01
 -1.1396269e-01
 -5.8112677e-02
 -1.1843043e-01
 -4.4547018e-02
  3.8238876e-02
  5.0601601e-03
 -5.7491553e-01
 -6.2135661e-01
 -4.7163840e-02
 -5.9374863e-01
 -3.8154152e-01
  1.5401523e+00
 -5.7721025e-01
  4.6350040e-02
  9.3381071e-01
  2.3282853e-01
 -8.8420287e-03
  5.2465516e-01
 -2.0500571e-02
 -2.0137158e-01
  8.3700642e-02
  2.8045672e-01
  3.8595779e-03
  2.6542697e+00
  4.9848866e-01
 -4.1517723e-01
  7.3071413e-02
 -4.2301595e-02
  1.0219418e-01
 -3.8753799e-01
  3.3591371e-02
  6.2598860e-01
  2.9829589e-01
 -3.8131485e-03
  1.8794258e-01
  1.9763788e+00
 -1.0409847e-01
  1.3757109e-02
  1.9345070e-01
  1.0372117e-02
  6.3082576e-02
  2.0041202e-01
 -3.9080393e-01
 -2.6115900e-01
  5.8105554e-02
 -3.0656075e+00
  9.3529686e-02
  2.7155513e-01
 -5.0514963e-02
  1.2538978e-01
  4.1670658e-02
  1.0589261e-01
  1.8464987e-01
  1.2878498e-01
 -6.7141061e-03
 -2.9284003e-01
 -1.7694564e-01
 -5.2665103e-02
  5.8718555e-02
  7.1599293e-01
 -1.4258377e-01
 -4.8533631e-03
  8.2852226e-04
 -5.2098963e-05
  2.0243524e-01
 -6.2459826e-02
  2.4127843e-02
 -2.9007567e-02
  6.1530862e-02
 -1.1570967e+00
 -5.3930211e-01
  7.8399140e-01
 -3.3363752e-02
 -7.2309386e-04
  2.2605869e-01
 -5.4652944e-02
 -4.3912407e-02
  6.7932630e-01
 -2.6324502e-01
  3.1592795e-01
  7.9197919e-01
 -1.2297456e+00
  1.7325205e-01
 -4.5651853e-01
  1.0275751e-01
  7.2662942e-02
 -1.5455407e-01
 -5.1188475e-01
  7.7032909e-02
  1.0675085e-01
  2.6250944e-01
  1.6161619e+00
 -7.0445113e-02
 -5.8025503e-01
  2.4102929e-01
  1.5464789e-01
  7.5751352e-01
  1.4002953e-01
  2.0460401e-01
  1.2447581e-01
  8.0671646e-03
  1.9352010e-02
  1.3174719e-01
  1.5302344e-01
  3.7681203e-02
  8.6899120e-01
  1.1456454e-01
 -2.4887741e-01
 -1.9110831e-02
  2.6975644e-01
  1.5462928e-02
  8.5268326e-02
 -3.8450353e-02
 -3.1277594e-01
 -2.3400916e-01
 -4.0089797e-02
 -8.5758254e-02
 -5.0587308e-01
 -9.5879805e-01
 -2.4587994e+00
  7.0698214e-01
  4.8633207e-02
  2.7929443e-01
  8.5770838e-02
  1.5928298e-01
  6.1393154e-01
  3.1332903e-02
 -8.5725911e-02
  1.1816824e-01
  1.2130249e-01
 -1.4077869e-02
 -1.2440152e+00
 -2.7852159e-02
 -7.1562290e-02
  3.0089691e-02
 -5.8244881e-03
  2.8449763e-03
 -1.0894370e+00
  3.7014607e-01
  3.3081967e-01
  6.4991701e-01
  3.9161864e-01
  2.1617576e-02
 -4.6044418e-01
  1.2089363e-01
 -1.4083850e-01
  1.3857545e-01
  9.2764102e-02
 -1.6924511e-01
  5.0386095e-01
 -2.0454107e-01
 -8.9192301e-02
  2.1908590e-01
  1.1591645e+00
  1.8509275e-01
 -1.9191936e+00
 -7.8044361e-01
 -1.2857448e-02
  3.8739958e-01
  5.9095919e-02
  2.8998176e-02
  6.8091476e-01
  7.0976355e-04
  2.5364337e-02
 -5.0555390e-01
 -6.4241391e-01
 -7.0822284e-02
 -1.0025983e-01
  1.2238349e-01
  4.6800010e-02
 -3.4126164e-03
  5.0143713e-01
  1.0461694e+00
 -9.2346177e-02
 -3.2504866e-01
 -2.1129765e-01
 -1.4061804e+00
 -2.3458560e+00
 -8.9599669e-01
  2.0237339e+00
  1.0631903e-01
 -2.8917599e-01
 -2.1346511e-01
  1.0368172e-02
  7.0044309e-02
  3.7357855e-01
  1.0341430e-01
 -2.1476258e-01
 -4.7564477e-01
 -2.0492198e+00
  6.9300517e-02
  3.5408850e+00
  1.1535324e+00
  7.1432745e-01
  1.0114945e+00
  1.7934561e-01
  7.1911764e-01
  1.0726901e+00
  1.9361940e-01
  2.1718246e-01
  5.1274776e-01
  1.6748914e-02
  2.6606411e-01
  1.6458164e+00
  6.0343373e-01
  7.9785727e-02
 -8.5168582e-01
  5.2350074e-01
  2.5661060e-01
  1.4364848e+00
  6.5452045e-01
  5.6268030e-01
  6.8948351e-02
  3.8381565e-01
  1.1804929e+00
 -1.1411122e-01
  1.6819793e-01
  3.2364763e-02
  6.0259424e-02
 -1.7561987e-02
  2.2987852e-02
  5.4952670e-02
  2.8795958e-01
  1.8063840e-01
  3.3273038e-02
 -1.8005568e-01
 -3.4012121e-01
  1.8808887e+00
  2.2115925e-01
  7.0124798e-02
  2.9780671e-02
  3.2222111e-02
 -4.3583909e-01
  2.2300825e+00
  7.1857250e-01
  1.6057888e+00
  3.3455003e-02
  2.5025675e-01
  1.4320517e-01
  1.8334298e-01
  5.2460879e-01
  9.8501098e-01
  3.1903493e+00
  5.1616800e-01
  6.3826025e-01
  8.8169104e-01
 -1.9649278e-01
 -4.0683199e-02
 -4.4764212e-01
 -1.1207558e+00
 -4.4452913e-02
 -6.9584793e-01
  2.2023022e-02
 -1.0037410e-01
  8.1662253e-02
  9.7549029e-02
  6.8506318e-01
  3.2102020e+00
 -1.1676087e+00
 -2.0466585e-01
  3.7236685e-01
  4.4715744e-01
  1.8784621e+00
  8.3114910e-01
  6.8508592e-03
 -4.4896357e-02
 -9.1442645e-02
 -7.4727319e-02
 -5.6416258e-02
 -8.8740177e-03
  1.4649108e-01
  2.5988055e-02
  3.2281902e-02
 -5.6198109e-02
  1.7769654e-01
  1.8614160e+00
  6.0882974e-02
 -1.9130807e-01
 -1.8626404e-01
  1.9456081e-02
  5.6304649e-02
  1.5902017e+00
  2.6813857e-03
  2.8156755e-03
 -2.3503508e-01
 -1.5069444e-01
  1.9399834e-01
  1.2232281e+00
  1.0656587e-02
 -2.6980415e-02
 -4.4426534e-02
 -1.5905152e-01
 -2.1511270e-02
  6.7759681e-01
 -1.4223684e-01
  8.5526459e-02
 -6.6062137e-02
  3.6778548e-03
 -4.1552505e-01
 -9.7263414e-01
  3.8066128e-01
 -1.2105459e-01
 -2.0110477e-03
 -7.7556521e-02
 -2.0396700e-03
  2.4563128e-01
 -2.2731220e-02
 -6.9224805e-01
  3.3251858e-01
 -4.2253149e-01
  1.5691901e-02
  3.3238095e-01
  5.1432693e-01
  8.4130764e-01
  4.4312066e-01
  1.5990522e-02
  2.3514414e-02
  1.5822930e+00
 -2.3541547e-01
 -3.6651409e-01
 -4.8413917e-02
 -2.0518745e-01
 -8.2959640e-01
 -1.2270787e+00
  8.4694976e-01
 -6.4699650e-02
  1.5130283e-01
 -6.8636619e-02
  2.3004713e-02
  1.6408245e-01
 -2.6856346e-02
 -1.8855868e-01
 -5.1585507e-01
  4.0474814e-01
 -1.7698890e-02
  3.5569034e+00
  7.9428241e-02
 -3.6291238e-02
 -3.4101259e-02
 -5.8744776e-01
 -6.9633164e-02
 -3.6211854e-01
  3.5280162e-01
 -1.8949983e-01
  1.2529452e-02
  5.1650345e-01
  6.6993564e-01
  1.7917664e+00
  7.6607811e-01
  5.3888011e-01
  1.8575153e-01
  1.5514940e-01
  7.1815306e-01
  3.5466665e-01
 -4.4275792e-03
 -9.7865276e-03
 -4.4960706e-03
 -4.3193990e-01
 -3.0296731e-01
  1.0437757e+00
 -8.3045609e-02
  8.7722624e-03
  1.1383092e-03
  3.9127827e-02
 -5.7443831e-02
  1.6960765e+00
 -7.3705077e-01
  1.3142494e+00
 -6.7849362e-01
 -1.7876180e+00
 -1.9899714e+00
  1.8638158e+00
 -1.0472926e-01
  1.7157657e-02
  3.4195978e-02
  1.6798366e-02
 -3.9377775e-02
 -4.6103239e-01
 -2.4143850e-02
 -5.9469175e-02
  4.2658234e-03
  5.3481705e-02
  9.0500608e-02
  2.0907061e+00
  3.7983876e-01
  8.6840495e-02
 -8.5750781e-03
 -4.6544930e-01
 -2.6562877e-02
  9.8762923e-01
 -1.1600724e-01
  8.4929407e-01
 -1.4050323e-01
 -7.9620756e-02
  4.2533901e-02
 -1.6732068e+00
  7.7209100e-02
 -7.1093336e-02
  2.0641299e-01
 -2.3290215e-01
 -1.1695042e-01
 -5.4031420e-01
  1.9079067e+00
  7.4308902e-01
  2.8566873e-01
  1.2997435e+00
  5.9488928e-05
  1.4516264e-03
  9.0842414e-01
  4.9972575e-02
  6.5832026e-03
 -9.4883740e-02
 -2.0228599e-01
 -2.1125716e-01
  1.8611139e-02
  1.2752283e-01
 -3.2780483e-01
 -1.0261955e-01
 -9.1405146e-02
  1.0230505e+00
  3.0573952e-01
  4.6824083e-02
  3.4097892e-01
  1.0187146e-01
  5.1858979e-01
  4.5198673e-01
 -1.5097837e+00
 -1.3955108e+00
 -1.9384548e-01
  7.0485163e-01
 -7.8381008e-01
 -1.1044721e-01
  2.2909823e-01
 -4.3477561e-02
 -5.2679949e-02
  1.1967304e-01
  8.3456624e-01
  6.2653708e-01
  4.2521477e-01
 -5.2485484e-01
 -2.1912986e-02
  7.7895546e-01
 -5.3457725e-01
 -5.4746914e-01
  3.1242332e-01
  2.8652634e-02
 -2.5318187e-01
 -1.2880796e-01
  9.8865956e-02
  7.4254388e-01
  6.4600736e-02
 -3.0017880e-01
  8.1957662e-01
 -1.5438365e-02
 -1.5401486e-01
  3.2921441e+00
  1.4299534e-01
  8.9676775e-02
 -1.1041162e+00
 -2.4417229e-01
  6.4622700e-02
  1.9899517e+00
  3.4260783e-01
  3.1161797e-01
 -1.5414241e-01
 -1.9664073e-01
 -1.1068447e-01
 -8.0954313e-01
  1.4221689e-01
  1.3671524e-03
 -7.4564800e-02
  8.8949122e-02
  1.5892150e-02
  5.8024013e-01
  3.7477221e-02
  7.7812523e-03
 -1.3393847e-02
 -1.2947538e+00
  3.2293189e-01
  1.4937933e-01
  2.6247837e-02
 -5.2601904e-01
  9.8452024e-02
 -4.8756175e-02
 -8.8639945e-01
  2.3793881e+00
  1.7445222e-01
  1.3367625e-02
  1.2501448e-01
  3.7669626e-01
 -1.9077602e-01
  1.0008479e+00
  1.2617379e+00
  3.8576046e-01
 -5.8091980e-01
  2.4099393e-01
  6.8911690e-01
 -2.7432916e-01
  9.8250437e-01
  8.8750988e-02
 -1.1609323e-01
 -1.4847594e+00
 -8.1928022e-02
 -3.9337179e-01
  1.2746014e-01
 -8.8097900e-03
 -3.1621963e-02
 -1.2360894e-01
  6.3454859e-02
  5.2249527e-01
  1.5096786e+00
  4.2473234e-02
  1.9446968e-01
  4.5530570e-01
 -3.0952546e-01
  2.5022018e-01
  6.3424534e-01
  6.6671026e-01
 -6.1727036e-03
 -6.7152038e-02
 -1.0634323e-01
  2.1832209e+00
  9.2454202e-02
 -1.9620094e-01
  1.7683503e-01
  4.1221121e-01
 -2.1859752e-02
 -7.5158453e-01
  9.1919571e-02
  2.1395707e-01
  3.0158651e-01
  1.2039886e-01
 -2.8057453e-01
 -7.7545279e-01
  3.7778415e-02
 -3.5824648e-01
 -1.8967824e-02
  9.4153607e-01
  2.4271542e-01
  1.3054730e-01
 -3.3112019e-02
 -9.4467469e-02
  8.5599191e-02
  1.2382539e-01
 -1.9667983e-01
  2.9609904e+00
  5.1430697e-03
 -6.3673866e-01
 -4.3877041e-01
  2.9808994e-02
  3.0718956e-02
 -1.6448372e-03
 -3.2757392e+00
 -2.6097777e+00
  5.4712987e-01
 -6.1118573e-01
  5.2295759e-02
  1.3199073e+00
 -1.0509108e+00
  9.6888739e-01
 -2.6952257e+00
  7.3148406e-01
 -1.2166706e-01
 -3.8773027e-01
  1.4801376e+00
  8.5636795e-01
  9.5339671e-02
  3.7900200e-01
  2.2686386e-01
  5.2922320e-01
  9.2785083e-02
  6.9381350e-01
 -3.8106754e-02
 -4.1922953e-02
  1.1137427e-01
  2.2671159e-01
 -5.2008331e-01
  2.5705454e+00
 -3.9521426e-02
 -1.5125815e+00
 -6.0315055e-01
 -1.0559521e+00
  2.7116248e-01
  4.2758390e-01
  1.6527903e+00
 -1.6697425e+00
 -2.5177523e-01
  5.1961213e-01
 -1.9041303e+00
 -1.7767746e-02
  1.5212455e-01
 -7.0994592e-01
 -1.4794635e+00
 -2.3140705e+00
 -1.3031900e+00
 -6.3093585e-01
 -1.5620193e-01
  1.5886763e-01
 -3.0039880e-02
 -1.1579571e+00
 -1.8110667e-01
  7.4622817e-02
  2.8321877e+00
 -6.5532319e-02
 -7.2479002e-02
 -2.4623320e-01
 -7.3387343e-01
  5.6452855e-02
 -2.2222035e-01
 -2.4876393e-01
  6.1853314e-03
 -1.0804000e+00
 -5.9027189e-01
 -8.5962844e-01
 -1.3005934e-02
 -3.8789418e-01
  1.3100414e-01
 -1.5234751e-01
 -1.3276526e+00
 -3.8253195e+00
 -5.5090535e-01
  1.8243057e+00
 -1.0790749e+00
  1.5248570e+00
  3.7459075e+00
  5.6097040e+00
  2.0282766e-01
  1.2719928e+00
  1.4918389e+00
  5.6160086e-01
  5.6982412e+00
  1.1395240e+00
  4.1334615e+00
  1.2963623e+00
  3.2898514e+00
 -5.8434916e-01
  3.2250488e+00
  3.3271003e+00
  9.6761221e-01
 -7.6941496e-01
  2.2324100e-01
 -1.3276110e+00
  2.1848512e-01
 -2.7266863e-01
  1.6850293e+00
 -8.0387229e-01
 -1.3009181e-02
  2.8889957e-01
  1.5615728e+00
 -6.5345322e-03
  2.2686749e+00
  6.0480082e-01
  1.3484979e-01
  2.7401930e-01
  1.2911392e+00
  5.5750656e-01
 -3.6908410e+00
  1.0964844e+00
 -3.1517549e+00
  2.8302217e+00
 -1.4452162e-03
 -4.3070415e-01
 -4.9267297e+00
 -2.2837415e-01
 -3.0523915e+00
  1.0192049e+00
 -1.9357183e+00
  2.9915571e-01
 -8.5024916e-02
 -1.2941676e+00
 -2.4077386e-01
 -2.9800212e-01
  1.9724972e+00
 -1.0372587e+00
  1.6951242e-01
  3.1214023e-01
 -5.6505704e-01
 -1.5852672e+00
  1.2582161e-01
 -8.0571204e-01
  2.8293853e+00
  3.3994135e-01
  1.0174559e+00
  1.3346947e+00
 -2.2151759e+00
 -1.6067257e+00
  1.3112072e+00
 -8.6799490e-01
  1.4695504e+00
  7.7422214e-01
  2.9312115e+00
 -2.2686253e+00
 -1.7328821e-01
  5.5027413e-01
 -1.6105819e+00
 -1.6986810e+00
 -2.0248322e-01
 -2.6515839e-01
 -1.9691868e+00
 -1.1561230e+00
 -4.7159609e-01
 -2.4685850e+00
 -1.2850662e+00
 -1.7041808e+00
 -9.3586087e-01
 -3.3779483e+00
  1.6011207e+00
 -3.5533392e-01
  5.0672251e-01
 -2.7515252e+00
 -2.1442277e+00
 -1.9872291e+00
 -5.6461108e-01
 -9.1813552e-01
 -4.8964909e-01
 -2.6536718e-01
 -8.4500313e-01
 -2.1833408e+00
  6.0940415e-01
  1.3761133e+00
 -7.9929984e-01
  5.9615409e-01
 -1.6382495e-01
 -9.4464982e-01
  1.0760044e+00
  2.3897418e-01
 -1.4296514e+00
 -9.2828745e-01
 -1.0712973e+00
  9.2077041e-01
  9.5101482e-01
  2.1010997e+00
  2.2247066e+00
  3.9035261e-01
  2.4476545e+00
  2.2632451e-01
 -1.2097666e-01
  5.9231126e-01
  8.8907647e-01
  7.6922625e-02
  2.8730621e+00
  5.5708122e-01
  2.8069255e-01
 -3.5482821e-01
  1.6692373e-01
 -1.3790538e+00
  1.9873104e+00
  2.5221868e+00
  5.7197511e-01
 -1.8768966e+00
 -2.1298440e+00
 -1.3568671e-01
 -1.6890348e+00
 -2.7951491e-01
 -2.4398600e-01
 -2.2045681e+00
 -7.8355622e-01
  1.6294236e+00
  4.2982873e-01
  3.5350049e-01
 -1.6849247e+00
 -3.0868249e+00
 -3.6675539e+00
 -1.3697919e+00
  5.6772459e-02
 -7.7074081e-01
 -2.2598228e+00
  2.0087712e+00
  3.7876606e+00
  2.2779055e+00
  2.4542794e+00
  1.2070270e+00
  3.5098250e+00
  4.4815097e-02
  2.9930003e+00
  8.0497324e-02
  1.3951783e+00
  1.7965472e+00
  6.7458403e-01
  2.6045606e-01
  2.1073005e+00
  4.4461994e+00
  3.6790793e+00
